1.,-9.3774648313,-9.3774648313,-9.3774648313,1.,-9.3774648313,1.,-9.3774648313,1.,1.,-9.3774648313,-9.3774648313,-9.3774648313,-9.3774648313,1.,-9.3774648313,0.7925025329,1.,1.,0.7925025329,1.,1.,-9.3774648313,-9.3774648313,1.,-8.9616656434,1.,-8.9616656434,1.,-9.3774648313,-9.3774648313,-9.3774648313,1.,1.,1.,-9.3774648313,1.,1.,1.,-9.3774648313,1.,1.,1.,-9.3774648313,1.,1.,1.,-9.3774648313,-2.1124620061,1.,1.,-2.1124620061,1.,1.,1.,-9.3774648313,1.,1.,1.,-8.9616656434,1.,1.,1.,-9.3774648313,0.7925025329,1.,1.,0.7925025329,0.7925025329,1.,1.,0.7925025329,0.7925025329,1.,1.,0.7925025329,0.7925025329,1.,1.,0.7925025329,-1.904964539,1.,1.,-1.904964539,0.7925025329,0.7921004061,1.,0.584602939,0.7925025329,1.,1.,0.584602939,0.7925025329,0.7921004061,1.,0.584602939,1.,1.,1.,1.,1.,1.,1.,1.,1.,1.,1.,1.,0.7925025329,1.,1.,0.7925025329,1.,1.,1.,-8.3379668615,0.7925025329,1.,1.,0.7925025329,1.,1.,1.,0.7921004061,1.,1.,1.,1.,1.,1.,1.,1.,1.,1.,1.,1.,0.7925025329,1.,0.5850050659,0.7925025329,1.,1.,0.5850050659,1.,1.,1.,0.5850050659,1.,1.,1.,0.5850050659,1.,0.7925025329,1.,0.5850050659,0.7925025329,1.,1.,1.,1.,1.,0.5850050659,0.5850050659,1.,0.7925025329,1.,1.,0.7925025329,1.,-0.4544929039,-0.869487838,1.,1.,1.,0.5850050659,1.,1.,1.,0.5850050659,1.,1.,0.5850050659,0.1700101317,1.,1.,1.,0.5850050659,1.,0.7923104056,-2.7353431233,-2.7353431233,0.7923104056,0.5846163498,1.,-8.9620811811,0.7924085576,1.,1.,-9.3774648313,1.,1.,1.,-8.547474963,1.,1.,1.,-8.547474963,1.,1.,-0.0394979697,-8.547474963,1.,1.,1.,-8.547474963,1.,1.,1.,-8.547474963,1.,1.,1.,-9.3774648313,1.,-9.1696726235,1.,1.,1.,1.,-7.5079769933,-7.5079769933,1.,1.,-9.3774648313,1.,1.,-9.3774648313,-9.3774648313,-9.3774648313,1.,-9.3774648313,1.,-9.3774648313,1.,1.,-9.3774648313,1.,1.,-3.1518439515,-3.9799392097,-3.9799392097,1.,-5.2256208798,1.,1.,1.;1.,-9.3774648313,-9.3774648313,-9.3774648313,1.,-9.3774648313,1.,-9.3774648313,1.,1.,-9.3774648313,-9.3774648313,-9.3774648313,-9.3774648313,1.,-9.3774648313,0.7925025329,1.,1.,0.7925025329,1.,1.,-9.3774648313,-9.3774648313,1.,-8.9616656434,1.,-8.9616656434,1.,-9.3774648313,-9.3774648313,-9.3774648313,1.,1.,1.,-9.3774648313,1.,1.,1.,-9.3774648313,1.,1.,1.,-9.3774648313,1.,1.,1.,-9.3774648313,-2.1124620061,1.,1.,-2.1124620061,1.,1.,1.,-9.3774648313,1.,1.,1.,-8.9616656434,1.,1.,1.,-9.3774648313,0.7925025329,1.,1.,0.7925025329,0.7925025329,1.,1.,0.7925025329,0.7925025329,1.,1.,0.7925025329,0.7925025329,1.,1.,0.7925025329,-1.904964539,1.,1.,-1.904964539,0.7925025329,0.7921004061,1.,0.584602939,0.7925025329,1.,1.,0.584602939,0.7925025329,0.7921004061,1.,0.584602939,1.,1.,1.,1.,1.,1.,1.,1.,1.,1.,1.,1.,0.7925025329,1.,1.,0.7925025329,1.,1.,1.,-8.3379668615,0.7925025329,1.,1.,0.7925025329,1.,1.,1.,0.7921004061,1.,1.,1.,1.,1.,1.,1.,1.,1.,1.,1.,1.,0.7925025329,1.,0.5850050659,0.7925025329,1.,1.,0.5850050659,1.,1.,1.,0.5850050659,1.,1.,1.,0.5850050659,1.,0.7925025329,1.,0.5850050659,0.7925025329,1.,1.,1.,1.,1.,0.5850050659,0.5850050659,1.,0.7925025329,1.,1.,0.7925025329,1.,-0.4544929039,-0.869487838,1.,1.,1.,0.5850050659,1.,1.,1.,0.5850050659,1.,1.,0.5850050659,0.1700101317,1.,1.,1.,0.5850050659,1.,0.7923104056,-2.7353431233,-2.7353431233,0.7923104056,0.5846163498,1.,-8.9620811811,0.7924085576,1.,1.,-9.3774648313,1.,1.,1.,-8.547474963,1.,1.,1.,-8.547474963,1.,1.,-0.0394979697,-8.547474963,1.,1.,1.,-8.547474963,1.,1.,1.,-8.547474963,1.,1.,1.,-9.3774648313,1.,-9.1696726235,1.,1.,1.,1.,-7.5079769933,-7.5079769933,1.,1.,-9.3774648313,1.,1.,-9.3774648313,-9.3774648313,-9.3774648313,1.,-9.3774648313,1.,-9.3774648313,1.,1.,-9.3774648313,1.,1.,-3.1518439515,-3.9799392097,-3.9799392097,1.,-5.2256208798,1.,1.,1.;1.,-9.3774648313,-9.3774648313,-9.3774648313,1.,-9.3774648313,1.,-9.3774648313,1.,1.,-9.3774648313,-9.3774648313,-9.3774648313,-9.3774648313,1.,-9.3774648313,0.7925025329,1.,1.,0.7925025329,1.,1.,-9.3774648313,-9.3774648313,1.,-8.9616656434,1.,-8.9616656434,1.,-9.3774648313,-9.3774648313,-9.3774648313,1.,1.,1.,-9.3774648313,1.,1.,1.,-9.3774648313,1.,1.,1.,-9.3774648313,1.,1.,1.,-9.3774648313,-2.1124620061,1.,1.,-2.1124620061,1.,1.,1.,-9.3774648313,1.,1.,1.,-8.9616656434,1.,1.,1.,-9.3774648313,0.7925025329,1.,1.,0.7925025329,0.7925025329,1.,1.,0.7925025329,0.7925025329,1.,1.,0.7925025329,0.7925025329,1.,1.,0.7925025329,-1.904964539,1.,1.,-1.904964539,0.7925025329,0.7921004061,1.,0.584602939,0.7925025329,1.,1.,0.584602939,0.7925025329,0.7921004061,1.,0.584602939,1.,1.,1.,1.,1.,1.,1.,1.,1.,1.,1.,1.,0.7925025329,1.,1.,0.7925025329,1.,1.,1.,-8.3379668615,0.7925025329,1.,1.,0.7925025329,1.,1.,1.,0.7921004061,1.,1.,1.,1.,1.,1.,1.,1.,1.,1.,1.,1.,0.7925025329,1.,0.5850050659,0.7925025329,1.,1.,0.5850050659,1.,1.,1.,0.5850050659,1.,1.,1.,0.5850050659,1.,0.7925025329,1.,0.5850050659,0.7925025329,1.,1.,1.,1.,1.,0.5850050659,0.5850050659,1.,0.7925025329,1.,1.,0.7925025329,1.,-0.4544929039,-0.869487838,1.,1.,1.,0.5850050659,1.,1.,1.,0.5850050659,1.,1.,0.5850050659,0.1700101317,1.,1.,1.,0.5850050659,1.,0.7923104056,-2.7353431233,-2.7353431233,0.7923104056,0.5846163498,1.,-8.9620811811,0.7924085576,1.,1.,-9.3774648313,1.,1.,1.,-8.547474963,1.,1.,1.,-8.547474963,1.,1.,-0.0394979697,-8.547474963,1.,1.,1.,-8.547474963,1.,1.,1.,-8.547474963,1.,1.,1.,-9.3774648313,1.,-9.1696726235,1.,1.,1.,1.,-7.5079769933,-7.5079769933,1.,1.,-9.3774648313,1.,1.,-9.3774648313,-9.3774648313,-9.3774648313,1.,-9.3774648313,1.,-9.3774648313,1.,1.,-9.3774648313,1.,1.,-3.1518439515,-3.9799392097,-3.9799392097,1.,-5.2256208798,1.,1.,1.;1.,-9.3774648313,-9.3774648313,-9.3774648313,1.,-9.3774648313,1.,-9.3774648313,1.,1.,-9.3774648313,-9.3774648313,-9.3774648313,-9.3774648313,1.,-9.3774648313,0.7925025329,1.,1.,0.7925025329,1.,1.,-9.3774648313,-9.3774648313,1.,-8.9616656434,1.,-8.9616656434,1.,-9.3774648313,-9.3774648313,-9.3774648313,1.,1.,1.,-9.3774648313,1.,1.,1.,-9.3774648313,1.,1.,1.,-9.3774648313,1.,1.,1.,-9.3774648313,-2.1124620061,1.,1.,-2.1124620061,1.,1.,1.,-9.3774648313,1.,1.,1.,-8.9616656434,1.,1.,1.,-9.3774648313,0.7925025329,1.,1.,0.7925025329,0.7925025329,1.,1.,0.7925025329,0.7925025329,1.,1.,0.7925025329,0.7925025329,1.,1.,0.7925025329,-1.904964539,1.,1.,-1.904964539,0.7925025329,0.7921004061,1.,0.584602939,0.7925025329,1.,1.,0.584602939,0.7925025329,0.7921004061,1.,0.584602939,1.,1.,1.,1.,1.,1.,1.,1.,1.,1.,1.,1.,0.7925025329,1.,1.,0.7925025329,1.,1.,1.,-8.3379668615,0.7925025329,1.,1.,0.7925025329,1.,1.,1.,0.7921004061,1.,1.,1.,1.,1.,1.,1.,1.,1.,1.,1.,1.,0.7925025329,1.,0.5850050659,0.7925025329,1.,1.,0.5850050659,1.,1.,1.,0.5850050659,1.,1.,1.,0.5850050659,1.,0.7925025329,1.,0.5850050659,0.7925025329,1.,1.,1.,1.,1.,0.5850050659,0.5850050659,1.,0.7925025329,1.,1.,0.7925025329,1.,-0.4544929039,-0.869487838,1.,1.,1.,0.5850050659,1.,1.,1.,0.5850050659,1.,1.,0.5850050659,0.1700101317,1.,1.,1.,0.5850050659,1.,0.7923104056,-2.7353431233,-2.7353431233,0.7923104056,0.5846163498,1.,-8.9620811811,0.7924085576,1.,1.,-9.3774648313,1.,1.,1.,-8.547474963,1.,1.,1.,-8.547474963,1.,1.,-0.0394979697,-8.547474963,1.,1.,1.,-8.547474963,1.,1.,1.,-8.547474963,1.,1.,1.,-9.3774648313,1.,-9.1696726235,1.,1.,1.,1.,-7.5079769933,-7.5079769933,1.,1.,-9.3774648313,1.,1.,-9.3774648313,-9.3774648313,-9.3774648313,1.,-9.3774648313,1.,-9.3774648313,1.,1.,-9.3774648313,1.,1.,-3.1518439515,-3.9799392097,-3.9799392097,1.,-5.2256208798,1.,1.,1.;1.,-9.3774648313,-9.3774648313,-9.3774648313,1.,-9.3774648313,1.,-9.3774648313,1.,1.,-9.3774648313,-9.3774648313,-9.3774648313,-9.3774648313,1.,-9.3774648313,0.7925025329,1.,1.,0.7925025329,1.,1.,-9.3774648313,-9.3774648313,1.,-8.9616656434,1.,-8.9616656434,1.,-9.3774648313,-9.3774648313,-9.3774648313,1.,1.,1.,-9.3774648313,1.,1.,1.,-9.3774648313,1.,1.,1.,-9.3774648313,1.,1.,1.,-9.3774648313,-2.1124620061,1.,1.,-2.1124620061,1.,1.,1.,-9.3774648313,1.,1.,1.,-8.9616656434,1.,1.,1.,-9.3774648313,0.7925025329,1.,1.,0.7925025329,0.7925025329,1.,1.,0.7925025329,0.7925025329,1.,1.,0.7925025329,0.7925025329,1.,1.,0.7925025329,-1.904964539,1.,1.,-1.904964539,0.7925025329,0.7921004061,1.,0.584602939,0.7925025329,1.,1.,0.584602939,0.7925025329,0.7921004061,1.,0.584602939,1.,1.,1.,1.,1.,1.,1.,1.,1.,1.,1.,1.,0.7925025329,1.,1.,0.7925025329,1.,1.,1.,-8.3379668615,0.7925025329,1.,1.,0.7925025329,1.,1.,1.,0.7921004061,1.,1.,1.,1.,1.,1.,1.,1.,1.,1.,1.,1.,0.7925025329,1.,0.5850050659,0.7925025329,1.,1.,0.5850050659,1.,1.,1.,0.5850050659,1.,1.,1.,0.5850050659,1.,0.7925025329,1.,0.5850050659,0.7925025329,1.,1.,1.,1.,1.,0.5850050659,0.5850050659,1.,0.7925025329,1.,1.,0.7925025329,1.,-0.4544929039,-0.869487838,1.,1.,1.,0.5850050659,1.,1.,1.,0.5850050659,1.,1.,0.5850050659,0.1700101317,1.,1.,1.,0.5850050659,1.,0.7923104056,-2.7353431233,-2.7353431233,0.7923104056,0.5846163498,1.,-8.9620811811,0.7924085576,1.,1.,-9.3774648313,1.,1.,1.,-8.547474963,1.,1.,1.,-8.547474963,1.,1.,-0.0394979697,-8.547474963,1.,1.,1.,-8.547474963,1.,1.,1.,-8.547474963,1.,1.,1.,-9.3774648313,1.,-9.1696726235,1.,1.,1.,1.,-7.5079769933,-7.5079769933,1.,1.,-9.3774648313,1.,1.,-9.3774648313,-9.3774648313,-9.3774648313,1.,-9.3774648313,1.,-9.3774648313,1.,1.,-9.3774648313,1.,1.,-3.1518439515,-3.9799392097,-3.9799392097,1.,-5.2256208798,1.,1.,1.;1.,-9.3774648313,-9.3774648313,-9.3774648313,1.,-9.3774648313,1.,-9.3774648313,1.,1.,-9.3774648313,-9.3774648313,-9.3774648313,-9.3774648313,1.,-9.3774648313,0.7925025329,1.,1.,0.7925025329,1.,1.,-9.3774648313,-9.3774648313,1.,-8.9616656434,1.,-8.9616656434,1.,-9.3774648313,-9.3774648313,-9.3774648313,1.,1.,1.,-9.3774648313,1.,1.,1.,-9.3774648313,1.,1.,1.,-9.3774648313,1.,1.,1.,-9.3774648313,-2.1124620061,1.,1.,-2.1124620061,1.,1.,1.,-9.3774648313,1.,1.,1.,-8.9616656434,1.,1.,1.,-9.3774648313,0.7925025329,1.,1.,0.7925025329,0.7925025329,1.,1.,0.7925025329,0.7925025329,1.,1.,0.7925025329,0.7925025329,1.,1.,0.7925025329,-1.904964539,1.,1.,-1.904964539,0.7925025329,0.7921004061,1.,0.584602939,0.7925025329,1.,1.,0.584602939,0.7925025329,0.7921004061,1.,0.584602939,1.,1.,1.,1.,1.,1.,1.,1.,1.,1.,1.,1.,0.7925025329,1.,1.,0.7925025329,1.,1.,1.,-8.3379668615,0.7925025329,1.,1.,0.7925025329,1.,1.,1.,0.7921004061,1.,1.,1.,1.,1.,1.,1.,1.,1.,1.,1.,1.,0.7925025329,1.,0.5850050659,0.7925025329,1.,1.,0.5850050659,1.,1.,1.,0.5850050659,1.,1.,1.,0.5850050659,1.,0.7925025329,1.,0.5850050659,0.7925025329,1.,1.,1.,1.,1.,0.5850050659,0.5850050659,1.,0.7925025329,1.,1.,0.7925025329,1.,-0.4544929039,-0.869487838,1.,1.,1.,0.5850050659,1.,1.,1.,0.5850050659,1.,1.,0.5850050659,0.1700101317,1.,1.,1.,0.5850050659,1.,0.7923104056,-2.7353431233,-2.7353431233,0.7923104056,0.5846163498,1.,-8.9620811811,0.7924085576,1.,1.,-9.3774648313,1.,1.,1.,-8.547474963,1.,1.,1.,-8.547474963,1.,1.,-0.0394979697,-8.547474963,1.,1.,1.,-8.547474963,1.,1.,1.,-8.547474963,1.,1.,1.,-9.3774648313,1.,-9.1696726235,1.,1.,1.,1.,-7.5079769933,-7.5079769933,1.,1.,-9.3774648313,1.,1.,-9.3774648313,-9.3774648313,-9.3774648313,1.,-9.3774648313,1.,-9.3774648313,1.,1.,-9.3774648313,1.,1.,-3.1518439515,-3.9799392097,-3.9799392097,1.,-5.2256208798,1.,1.,1.;1.,-9.3774648313,-9.3774648313,-9.3774648313,1.,-9.3774648313,1.,-9.3774648313,1.,1.,-9.3774648313,-9.3774648313,-9.3774648313,-9.3774648313,1.,-9.3774648313,0.7925025329,1.,1.,0.7925025329,1.,1.,-9.3774648313,-9.3774648313,1.,-8.9616656434,1.,-8.9616656434,1.,-9.3774648313,-9.3774648313,-9.3774648313,1.,1.,1.,-9.3774648313,1.,1.,1.,-9.3774648313,1.,1.,1.,-9.3774648313,1.,1.,1.,-9.3774648313,-2.1124620061,1.,1.,-2.1124620061,1.,1.,1.,-9.3774648313,1.,1.,1.,-8.9616656434,1.,1.,1.,-9.3774648313,0.7925025329,1.,1.,0.7925025329,0.7925025329,1.,1.,0.7925025329,0.7925025329,1.,1.,0.7925025329,0.7925025329,1.,1.,0.7925025329,-1.904964539,1.,1.,-1.904964539,0.7925025329,0.7921004061,1.,0.584602939,0.7925025329,1.,1.,0.584602939,0.7925025329,0.7921004061,1.,0.584602939,1.,1.,1.,1.,1.,1.,1.,1.,1.,1.,1.,1.,0.7925025329,1.,1.,0.7925025329,1.,1.,1.,-8.3379668615,0.7925025329,1.,1.,0.7925025329,1.,1.,1.,0.7921004061,1.,1.,1.,1.,1.,1.,1.,1.,1.,1.,1.,1.,0.7925025329,1.,0.5850050659,0.7925025329,1.,1.,0.5850050659,1.,1.,1.,0.5850050659,1.,1.,1.,0.5850050659,1.,0.7925025329,1.,0.5850050659,0.7925025329,1.,1.,1.,1.,1.,0.5850050659,0.5850050659,1.,0.7925025329,1.,1.,0.7925025329,1.,-0.4544929039,-0.869487838,1.,1.,1.,0.5850050659,1.,1.,1.,0.5850050659,1.,1.,0.5850050659,0.1700101317,1.,1.,1.,0.5850050659,1.,0.7923104056,-2.7353431233,-2.7353431233,0.7923104056,0.5846163498,1.,-8.9620811811,0.7924085576,1.,1.,-9.3774648313,1.,1.,1.,-8.547474963,1.,1.,1.,-8.547474963,1.,1.,-0.0394979697,-8.547474963,1.,1.,1.,-8.547474963,1.,1.,1.,-8.547474963,1.,1.,1.,-9.3774648313,1.,-9.1696726235,1.,1.,1.,1.,-7.5079769933,-7.5079769933,1.,1.,-9.3774648313,1.,1.,-9.3774648313,-9.3774648313,-9.3774648313,1.,-9.3774648313,1.,-9.3774648313,1.,1.,-9.3774648313,1.,1.,-3.1518439515,-3.9799392097,-3.9799392097,1.,-5.2256208798,1.,1.,1.;1.,-9.3774648313,-9.3774648313,-9.3774648313,1.,-9.3774648313,1.,-9.3774648313,1.,1.,-9.3774648313,-9.3774648313,-9.3774648313,-9.3774648313,1.,-9.3774648313,0.7925025329,1.,1.,0.7925025329,1.,1.,-9.3774648313,-9.3774648313,1.,-8.9616656434,1.,-8.9616656434,1.,-9.3774648313,-9.3774648313,-9.3774648313,1.,1.,1.,-9.3774648313,1.,1.,1.,-9.3774648313,1.,1.,1.,-9.3774648313,1.,1.,1.,-9.3774648313,-2.1124620061,1.,1.,-2.1124620061,1.,1.,1.,-9.3774648313,1.,1.,1.,-8.9616656434,1.,1.,1.,-9.3774648313,0.7925025329,1.,1.,0.7925025329,0.7925025329,1.,1.,0.7925025329,0.7925025329,1.,1.,0.7925025329,0.7925025329,1.,1.,0.7925025329,-1.904964539,1.,1.,-1.904964539,0.7925025329,0.7921004061,1.,0.584602939,0.7925025329,1.,1.,0.584602939,0.7925025329,0.7921004061,1.,0.584602939,1.,1.,1.,1.,1.,1.,1.,1.,1.,1.,1.,1.,0.7925025329,1.,1.,0.7925025329,1.,1.,1.,-8.3379668615,0.7925025329,1.,1.,0.7925025329,1.,1.,1.,0.7921004061,1.,1.,1.,1.,1.,1.,1.,1.,1.,1.,1.,1.,0.7925025329,1.,0.5850050659,0.7925025329,1.,1.,0.5850050659,1.,1.,1.,0.5850050659,1.,1.,1.,0.5850050659,1.,0.7925025329,1.,0.5850050659,0.7925025329,1.,1.,1.,1.,1.,0.5850050659,0.5850050659,1.,0.7925025329,1.,1.,0.7925025329,1.,-0.4544929039,-0.869487838,1.,1.,1.,0.5850050659,1.,1.,1.,0.5850050659,1.,1.,0.5850050659,0.1700101317,1.,1.,1.,0.5850050659,1.,0.7923104056,-2.7353431233,-2.7353431233,0.7923104056,0.5846163498,1.,-8.9620811811,0.7924085576,1.,1.,-9.3774648313,1.,1.,1.,-8.547474963,1.,1.,1.,-8.547474963,1.,1.,-0.0394979697,-8.547474963,1.,1.,1.,-8.547474963,1.,1.,1.,-8.547474963,1.,1.,1.,-9.3774648313,1.,-9.1696726235,1.,1.,1.,1.,-7.5079769933,-7.5079769933,1.,1.,-9.3774648313,1.,1.,-9.3774648313,-9.3774648313,-9.3774648313,1.,-9.3774648313,1.,-9.3774648313,1.,1.,-9.3774648313,1.,1.,-3.1518439515,-3.9799392097,-3.9799392097,1.,-5.2256208798,1.,1.,1.;1.,-9.3774648313,-9.3774648313,-9.3774648313,1.,-9.3774648313,1.,-9.3774648313,1.,1.,-9.3774648313,-9.3774648313,-9.3774648313,-9.3774648313,1.,-9.3774648313,0.7925025329,1.,1.,0.7925025329,1.,1.,-9.3774648313,-9.3774648313,1.,-8.9616656434,1.,-8.9616656434,1.,-9.3774648313,-9.3774648313,-9.3774648313,1.,1.,1.,-9.3774648313,1.,1.,1.,-9.3774648313,1.,1.,1.,-9.3774648313,1.,1.,1.,-9.3774648313,-2.1124620061,1.,1.,-2.1124620061,1.,1.,1.,-9.3774648313,1.,1.,1.,-8.9616656434,1.,1.,1.,-9.3774648313,0.7925025329,1.,1.,0.7925025329,0.7925025329,1.,1.,0.7925025329,0.7925025329,1.,1.,0.7925025329,0.7925025329,1.,1.,0.7925025329,-1.904964539,1.,1.,-1.904964539,0.7925025329,0.7921004061,1.,0.584602939,0.7925025329,1.,1.,0.584602939,0.7925025329,0.7921004061,1.,0.584602939,1.,1.,1.,1.,1.,1.,1.,1.,1.,1.,1.,1.,0.7925025329,1.,1.,0.7925025329,1.,1.,1.,-8.3379668615,0.7925025329,1.,1.,0.7925025329,1.,1.,1.,0.7921004061,1.,1.,1.,1.,1.,1.,1.,1.,1.,1.,1.,1.,0.7925025329,1.,0.5850050659,0.7925025329,1.,1.,0.5850050659,1.,1.,1.,0.5850050659,1.,1.,1.,0.5850050659,1.,0.7925025329,1.,0.5850050659,0.7925025329,1.,1.,1.,1.,1.,0.5850050659,0.5850050659,1.,0.7925025329,1.,1.,0.7925025329,1.,-0.4544929039,-0.869487838,1.,1.,1.,0.5850050659,1.,1.,1.,0.5850050659,1.,1.,0.5850050659,0.1700101317,1.,1.,1.,0.5850050659,1.,0.7923104056,-2.7353431233,-2.7353431233,0.7923104056,0.5846163498,1.,-8.9620811811,0.7924085576,1.,1.,-9.3774648313,1.,1.,1.,-8.547474963,1.,1.,1.,-8.547474963,1.,1.,-0.0394979697,-8.547474963,1.,1.,1.,-8.547474963,1.,1.,1.,-8.547474963,1.,1.,1.,-9.3774648313,1.,-9.1696726235,1.,1.,1.,1.,-7.5079769933,-7.5079769933,1.,1.,-9.3774648313,1.,1.,-9.3774648313,-9.3774648313,-9.3774648313,1.,-9.3774648313,1.,-9.3774648313,1.,1.,-9.3774648313,1.,1.,-3.1518439515,-3.9799392097,-3.9799392097,1.,-5.2256208798,1.,1.,1.;1.,-9.3774648313,-9.3774648313,-9.3774648313,1.,-9.3774648313,1.,-9.3774648313,1.,1.,-9.3774648313,-9.3774648313,-9.3774648313,-9.3774648313,1.,-9.3774648313,0.7925025329,1.,1.,0.7925025329,1.,1.,-9.3774648313,-9.3774648313,1.,-8.9616656434,1.,-8.9616656434,1.,-9.3774648313,-9.3774648313,-9.3774648313,1.,1.,1.,-9.3774648313,1.,1.,1.,-9.3774648313,1.,1.,1.,-9.3774648313,1.,1.,1.,-9.3774648313,-2.1124620061,1.,1.,-2.1124620061,1.,1.,1.,-9.3774648313,1.,1.,1.,-8.9616656434,1.,1.,1.,-9.3774648313,0.7925025329,1.,1.,0.7925025329,0.7925025329,1.,1.,0.7925025329,0.7925025329,1.,1.,0.7925025329,0.7925025329,1.,1.,0.7925025329,-1.904964539,1.,1.,-1.904964539,0.7925025329,0.7921004061,1.,0.584602939,0.7925025329,1.,1.,0.584602939,0.7925025329,0.7921004061,1.,0.584602939,1.,1.,1.,1.,1.,1.,1.,1.,1.,1.,1.,1.,0.7925025329,1.,1.,0.7925025329,1.,1.,1.,-8.3379668615,0.7925025329,1.,1.,0.7925025329,1.,1.,1.,0.7921004061,1.,1.,1.,1.,1.,1.,1.,1.,1.,1.,1.,1.,0.7925025329,1.,0.5850050659,0.7925025329,1.,1.,0.5850050659,1.,1.,1.,0.5850050659,1.,1.,1.,0.5850050659,1.,0.7925025329,1.,0.5850050659,0.7925025329,1.,1.,1.,1.,1.,0.5850050659,0.5850050659,1.,0.7925025329,1.,1.,0.7925025329,1.,-0.4544929039,-0.869487838,1.,1.,1.,0.5850050659,1.,1.,1.,0.5850050659,1.,1.,0.5850050659,0.1700101317,1.,1.,1.,0.5850050659,1.,0.7923104056,-2.7353431233,-2.7353431233,0.7923104056,0.5846163498,1.,-8.9620811811,0.7924085576,1.,1.,-9.3774648313,1.,1.,1.,-8.547474963,1.,1.,1.,-8.547474963,1.,1.,-0.0394979697,-8.547474963,1.,1.,1.,-8.547474963,1.,1.,1.,-8.547474963,1.,1.,1.,-9.3774648313,1.,-9.1696726235,1.,1.,1.,1.,-7.5079769933,-7.5079769933,1.,1.,-9.3774648313,1.,1.,-9.3774648313,-9.3774648313,-9.3774648313,1.,-9.3774648313,1.,-9.3774648313,1.,1.,-9.3774648313,1.,1.,-3.1518439515,-3.9799392097,-3.9799392097,1.,-5.2256208798,1.,1.,1.;1.,-9.3774648313,-9.3774648313,-9.3774648313,1.,-9.3774648313,1.,-9.3774648313,1.,1.,-9.3774648313,-9.3774648313,-9.3774648313,-9.3774648313,1.,-9.3774648313,0.7925025329,1.,1.,0.7925025329,1.,1.,-9.3774648313,-9.3774648313,1.,-8.9616656434,1.,-8.9616656434,1.,-9.3774648313,-9.3774648313,-9.3774648313,1.,1.,1.,-9.3774648313,1.,1.,1.,-9.3774648313,1.,1.,1.,-9.3774648313,1.,1.,1.,-9.3774648313,-2.1124620061,1.,1.,-2.1124620061,1.,1.,1.,-9.3774648313,1.,1.,1.,-8.9616656434,1.,1.,1.,-9.3774648313,0.7925025329,1.,1.,0.7925025329,0.7925025329,1.,1.,0.7925025329,0.7925025329,1.,1.,0.7925025329,0.7925025329,1.,1.,0.7925025329,-1.904964539,1.,1.,-1.904964539,0.7925025329,0.7921004061,1.,0.584602939,0.7925025329,1.,1.,0.584602939,0.7925025329,0.7921004061,1.,0.584602939,1.,1.,1.,1.,1.,1.,1.,1.,1.,1.,1.,1.,0.7925025329,1.,1.,0.7925025329,1.,1.,1.,-8.3379668615,0.7925025329,1.,1.,0.7925025329,1.,1.,1.,0.7921004061,1.,1.,1.,1.,1.,1.,1.,1.,1.,1.,1.,1.,0.7925025329,1.,0.5850050659,0.7925025329,1.,1.,0.5850050659,1.,1.,1.,0.5850050659,1.,1.,1.,0.5850050659,1.,0.7925025329,1.,0.5850050659,0.7925025329,1.,1.,1.,1.,1.,0.5850050659,0.5850050659,1.,0.7925025329,1.,1.,0.7925025329,1.,-0.4544929039,-0.869487838,1.,1.,1.,0.5850050659,1.,1.,1.,0.5850050659,1.,1.,0.5850050659,0.1700101317,1.,1.,1.,0.5850050659,1.,0.7923104056,-2.7353431233,-2.7353431233,0.7923104056,0.5846163498,1.,-8.9620811811,0.7924085576,1.,1.,-9.3774648313,1.,1.,1.,-8.547474963,1.,1.,1.,-8.547474963,1.,1.,-0.0394979697,-8.547474963,1.,1.,1.,-8.547474963,1.,1.,1.,-8.547474963,1.,1.,1.,-9.3774648313,1.,-9.1696726235,1.,1.,1.,1.,-7.5079769933,-7.5079769933,1.,1.,-9.3774648313,1.,1.,-9.3774648313,-9.3774648313,-9.3774648313,1.,-9.3774648313,1.,-9.3774648313,1.,1.,-9.3774648313,1.,1.,-3.1518439515,-3.9799392097,-3.9799392097,1.,-5.2256208798,1.,1.,1.;1.,-9.3774648313,-9.3774648313,-9.3774648313,1.,-9.3774648313,1.,-9.3774648313,1.,1.,-9.3774648313,-9.3774648313,-9.3774648313,-9.3774648313,1.,-9.3774648313,0.7925025329,1.,1.,0.7925025329,1.,1.,-9.3774648313,-9.3774648313,1.,-8.9616656434,1.,-8.9616656434,1.,-9.3774648313,-9.3774648313,-9.3774648313,1.,1.,1.,-9.3774648313,1.,1.,1.,-9.3774648313,1.,1.,1.,-9.3774648313,1.,1.,1.,-9.3774648313,-2.1124620061,1.,1.,-2.1124620061,1.,1.,1.,-9.3774648313,1.,1.,1.,-8.9616656434,1.,1.,1.,-9.3774648313,0.7925025329,1.,1.,0.7925025329,0.7925025329,1.,1.,0.7925025329,0.7925025329,1.,1.,0.7925025329,0.7925025329,1.,1.,0.7925025329,-1.904964539,1.,1.,-1.904964539,0.7925025329,0.7921004061,1.,0.584602939,0.7925025329,1.,1.,0.584602939,0.7925025329,0.7921004061,1.,0.584602939,1.,1.,1.,1.,1.,1.,1.,1.,1.,1.,1.,1.,0.7925025329,1.,1.,0.7925025329,1.,1.,1.,-8.3379668615,0.7925025329,1.,1.,0.7925025329,1.,1.,1.,0.7921004061,1.,1.,1.,1.,1.,1.,1.,1.,1.,1.,1.,1.,0.7925025329,1.,0.5850050659,0.7925025329,1.,1.,0.5850050659,1.,1.,1.,0.5850050659,1.,1.,1.,0.5850050659,1.,0.7925025329,1.,0.5850050659,0.7925025329,1.,1.,1.,1.,1.,0.5850050659,0.5850050659,1.,0.7925025329,1.,1.,0.7925025329,1.,-0.4544929039,-0.869487838,1.,1.,1.,0.5850050659,1.,1.,1.,0.5850050659,1.,1.,0.5850050659,0.1700101317,1.,1.,1.,0.5850050659,1.,0.7923104056,-2.7353431233,-2.7353431233,0.7923104056,0.5846163498,1.,-8.9620811811,0.7924085576,1.,1.,-9.3774648313,1.,1.,1.,-8.547474963,1.,1.,1.,-8.547474963,1.,1.,-0.0394979697,-8.547474963,1.,1.,1.,-8.547474963,1.,1.,1.,-8.547474963,1.,1.,1.,-9.3774648313,1.,-9.1696726235,1.,1.,1.,1.,-7.5079769933,-7.5079769933,1.,1.,-9.3774648313,1.,1.,-9.3774648313,-9.3774648313,-9.3774648313,1.,-9.3774648313,1.,-9.3774648313,1.,1.,-9.3774648313,1.,1.,-3.1518439515,-3.9799392097,-3.9799392097,1.,-5.2256208798,1.,1.,1.;1.,-9.3774648313,-9.3774648313,-9.3774648313,1.,-9.3774648313,1.,-9.3774648313,1.,1.,-9.3774648313,-9.3774648313,-9.3774648313,-9.3774648313,1.,-9.3774648313,0.7925025329,1.,1.,0.7925025329,1.,1.,-9.3774648313,-9.3774648313,1.,-8.9616656434,1.,-8.9616656434,1.,-9.3774648313,-9.3774648313,-9.3774648313,1.,1.,1.,-9.3774648313,1.,1.,1.,-9.3774648313,1.,1.,1.,-9.3774648313,1.,1.,1.,-9.3774648313,-2.1124620061,1.,1.,-2.1124620061,1.,1.,1.,-9.3774648313,1.,1.,1.,-8.9616656434,1.,1.,1.,-9.3774648313,0.7925025329,1.,1.,0.7925025329,0.7925025329,1.,1.,0.7925025329,0.7925025329,1.,1.,0.7925025329,0.7925025329,1.,1.,0.7925025329,-1.904964539,1.,1.,-1.904964539,0.7925025329,0.7921004061,1.,0.584602939,0.7925025329,1.,1.,0.584602939,0.7925025329,0.7921004061,1.,0.584602939,1.,1.,1.,1.,1.,1.,1.,1.,1.,1.,1.,1.,0.7925025329,1.,1.,0.7925025329,1.,1.,1.,-8.3379668615,0.7925025329,1.,1.,0.7925025329,1.,1.,1.,0.7921004061,1.,1.,1.,1.,1.,1.,1.,1.,1.,1.,1.,1.,0.7925025329,1.,0.5850050659,0.7925025329,1.,1.,0.5850050659,1.,1.,1.,0.5850050659,1.,1.,1.,0.5850050659,1.,0.7925025329,1.,0.5850050659,0.7925025329,1.,1.,1.,1.,1.,0.5850050659,0.5850050659,1.,0.7925025329,1.,1.,0.7925025329,1.,-0.4544929039,-0.869487838,1.,1.,1.,0.5850050659,1.,1.,1.,0.5850050659,1.,1.,0.5850050659,0.1700101317,1.,1.,1.,0.5850050659,1.,0.7923104056,-2.7353431233,-2.7353431233,0.7923104056,0.5846163498,1.,-8.9620811811,0.7924085576,1.,1.,-9.3774648313,1.,1.,1.,-8.547474963,1.,1.,1.,-8.547474963,1.,1.,-0.0394979697,-8.547474963,1.,1.,1.,-8.547474963,1.,1.,1.,-8.547474963,1.,1.,1.,-9.3774648313,1.,-9.1696726235,1.,1.,1.,1.,-7.5079769933,-7.5079769933,1.,1.,-9.3774648313,1.,1.,-9.3774648313,-9.3774648313,-9.3774648313,1.,-9.3774648313,1.,-9.3774648313,1.,1.,-9.3774648313,1.,1.,-3.1518439515,-3.9799392097,-3.9799392097,1.,-5.2256208798,1.,1.,1.;1.,-9.3774648313,-9.3774648313,-9.3774648313,1.,-9.3774648313,1.,-9.3774648313,1.,1.,-9.3774648313,-9.3774648313,-9.3774648313,-9.3774648313,1.,-9.3774648313,0.7925025329,1.,1.,0.7925025329,1.,1.,-9.3774648313,-9.3774648313,1.,-8.9616656434,1.,-8.9616656434,1.,-9.3774648313,-9.3774648313,-9.3774648313,1.,1.,1.,-9.3774648313,1.,1.,1.,-9.3774648313,1.,1.,1.,-9.3774648313,1.,1.,1.,-9.3774648313,-2.1124620061,1.,1.,-2.1124620061,1.,1.,1.,-9.3774648313,1.,1.,1.,-8.9616656434,1.,1.,1.,-9.3774648313,0.7925025329,1.,1.,0.7925025329,0.7925025329,1.,1.,0.7925025329,0.7925025329,1.,1.,0.7925025329,0.7925025329,1.,1.,0.7925025329,-1.904964539,1.,1.,-1.904964539,0.7925025329,0.7921004061,1.,0.584602939,0.7925025329,1.,1.,0.584602939,0.7925025329,0.7921004061,1.,0.584602939,1.,1.,1.,1.,1.,1.,1.,1.,1.,1.,1.,1.,0.7925025329,1.,1.,0.7925025329,1.,1.,1.,-8.3379668615,0.7925025329,1.,1.,0.7925025329,1.,1.,1.,0.7921004061,1.,1.,1.,1.,1.,1.,1.,1.,1.,1.,1.,1.,0.7925025329,1.,0.5850050659,0.7925025329,1.,1.,0.5850050659,1.,1.,1.,0.5850050659,1.,1.,1.,0.5850050659,1.,0.7925025329,1.,0.5850050659,0.7925025329,1.,1.,1.,1.,1.,0.5850050659,0.5850050659,1.,0.7925025329,1.,1.,0.7925025329,1.,-0.4544929039,-0.869487838,1.,1.,1.,0.5850050659,1.,1.,1.,0.5850050659,1.,1.,0.5850050659,0.1700101317,1.,1.,1.,0.5850050659,1.,0.7923104056,-2.7353431233,-2.7353431233,0.7923104056,0.5846163498,1.,-8.9620811811,0.7924085576,1.,1.,-9.3774648313,1.,1.,1.,-8.547474963,1.,1.,1.,-8.547474963,1.,1.,-0.0394979697,-8.547474963,1.,1.,1.,-8.547474963,1.,1.,1.,-8.547474963,1.,1.,1.,-9.3774648313,1.,-9.1696726235,1.,1.,1.,1.,-7.5079769933,-7.5079769933,1.,1.,-9.3774648313,1.,1.,-9.3774648313,-9.3774648313,-9.3774648313,1.,-9.3774648313,1.,-9.3774648313,1.,1.,-9.3774648313,1.,1.,-3.1518439515,-3.9799392097,-3.9799392097,1.,-5.2256208798,1.,1.,1.;1.,-9.3774648313,-9.3774648313,-9.3774648313,1.,-9.3774648313,1.,-9.3774648313,1.,1.,-9.3774648313,-9.3774648313,-9.3774648313,-9.3774648313,1.,-9.3774648313,0.7925025329,1.,1.,0.7925025329,1.,1.,-9.3774648313,-9.3774648313,1.,-8.9616656434,1.,-8.9616656434,1.,-9.3774648313,-9.3774648313,-9.3774648313,1.,1.,1.,-9.3774648313,1.,1.,1.,-9.3774648313,1.,1.,1.,-9.3774648313,1.,1.,1.,-9.3774648313,-2.1124620061,1.,1.,-2.1124620061,1.,1.,1.,-9.3774648313,1.,1.,1.,-8.9616656434,1.,1.,1.,-9.3774648313,0.7925025329,1.,1.,0.7925025329,0.7925025329,1.,1.,0.7925025329,0.7925025329,1.,1.,0.7925025329,0.7925025329,1.,1.,0.7925025329,-1.904964539,1.,1.,-1.904964539,0.7925025329,0.7921004061,1.,0.584602939,0.7925025329,1.,1.,0.584602939,0.7925025329,0.7921004061,1.,0.584602939,1.,1.,1.,1.,1.,1.,1.,1.,1.,1.,1.,1.,0.7925025329,1.,1.,0.7925025329,1.,1.,1.,-8.3379668615,0.7925025329,1.,1.,0.7925025329,1.,1.,1.,0.7921004061,1.,1.,1.,1.,1.,1.,1.,1.,1.,1.,1.,1.,0.7925025329,1.,0.5850050659,0.7925025329,1.,1.,0.5850050659,1.,1.,1.,0.5850050659,1.,1.,1.,0.5850050659,1.,0.7925025329,1.,0.5850050659,0.7925025329,1.,1.,1.,1.,1.,0.5850050659,0.5850050659,1.,0.7925025329,1.,1.,0.7925025329,1.,-0.4544929039,-0.869487838,1.,1.,1.,0.5850050659,1.,1.,1.,0.5850050659,1.,1.,0.5850050659,0.1700101317,1.,1.,1.,0.5850050659,1.,0.7923104056,-2.7353431233,-2.7353431233,0.7923104056,0.5846163498,1.,-8.9620811811,0.7924085576,1.,1.,-9.3774648313,1.,1.,1.,-8.547474963,1.,1.,1.,-8.547474963,1.,1.,-0.0394979697,-8.547474963,1.,1.,1.,-8.547474963,1.,1.,1.,-8.547474963,1.,1.,1.,-9.3774648313,1.,-9.1696726235,1.,1.,1.,1.,-7.5079769933,-7.5079769933,1.,1.,-9.3774648313,1.,1.,-9.3774648313,-9.3774648313,-9.3774648313,1.,-9.3774648313,1.,-9.3774648313,1.,1.,-9.3774648313,1.,1.,-3.1518439515,-3.9799392097,-3.9799392097,1.,-5.2256208798,1.,1.,1.;1.,-9.3774648313,-9.3774648313,-9.3774648313,1.,-9.3774648313,1.,-9.3774648313,1.,1.,-9.3774648313,-9.3774648313,-9.3774648313,-9.3774648313,1.,-9.3774648313,0.7925025329,1.,1.,0.7925025329,1.,1.,-9.3774648313,-9.3774648313,1.,-8.9616656434,1.,-8.9616656434,1.,-9.3774648313,-9.3774648313,-9.3774648313,1.,1.,1.,-9.3774648313,1.,1.,1.,-9.3774648313,1.,1.,1.,-9.3774648313,1.,1.,1.,-9.3774648313,-2.1124620061,1.,1.,-2.1124620061,1.,1.,1.,-9.3774648313,1.,1.,1.,-8.9616656434,1.,1.,1.,-9.3774648313,0.7925025329,1.,1.,0.7925025329,0.7925025329,1.,1.,0.7925025329,0.7925025329,1.,1.,0.7925025329,0.7925025329,1.,1.,0.7925025329,-1.904964539,1.,1.,-1.904964539,0.7925025329,0.7921004061,1.,0.584602939,0.7925025329,1.,1.,0.584602939,0.7925025329,0.7921004061,1.,0.584602939,1.,1.,1.,1.,1.,1.,1.,1.,1.,1.,1.,1.,0.7925025329,1.,1.,0.7925025329,1.,1.,1.,-8.3379668615,0.7925025329,1.,1.,0.7925025329,1.,1.,1.,0.7921004061,1.,1.,1.,1.,1.,1.,1.,1.,1.,1.,1.,1.,0.7925025329,1.,0.5850050659,0.7925025329,1.,1.,0.5850050659,1.,1.,1.,0.5850050659,1.,1.,1.,0.5850050659,1.,0.7925025329,1.,0.5850050659,0.7925025329,1.,1.,1.,1.,1.,0.5850050659,0.5850050659,1.,0.7925025329,1.,1.,0.7925025329,1.,-0.4544929039,-0.869487838,1.,1.,1.,0.5850050659,1.,1.,1.,0.5850050659,1.,1.,0.5850050659,0.1700101317,1.,1.,1.,0.5850050659,1.,0.7923104056,-2.7353431233,-2.7353431233,0.7923104056,0.5846163498,1.,-8.9620811811,0.7924085576,1.,1.,-9.3774648313,1.,1.,1.,-8.547474963,1.,1.,1.,-8.547474963,1.,1.,-0.0394979697,-8.547474963,1.,1.,1.,-8.547474963,1.,1.,1.,-8.547474963,1.,1.,1.,-9.3774648313,1.,-9.1696726235,1.,1.,1.,1.,-7.5079769933,-7.5079769933,1.,1.,-9.3774648313,1.,1.,-9.3774648313,-9.3774648313,-9.3774648313,1.,-9.3774648313,1.,-9.3774648313,1.,1.,-9.3774648313,1.,1.,-3.1518439515,-3.9799392097,-3.9799392097,1.,-5.2256208798,1.,1.,1.;1.,-9.3774648313,-9.3774648313,-9.3774648313,1.,-9.3774648313,1.,-9.3774648313,1.,1.,-9.3774648313,-9.3774648313,-9.3774648313,-9.3774648313,1.,-9.3774648313,0.7925025329,1.,1.,0.7925025329,1.,1.,-9.3774648313,-9.3774648313,1.,-8.9616656434,1.,-8.9616656434,1.,-9.3774648313,-9.3774648313,-9.3774648313,1.,1.,1.,-9.3774648313,1.,1.,1.,-9.3774648313,1.,1.,1.,-9.3774648313,1.,1.,1.,-9.3774648313,-2.1124620061,1.,1.,-2.1124620061,1.,1.,1.,-9.3774648313,1.,1.,1.,-8.9616656434,1.,1.,1.,-9.3774648313,0.7925025329,1.,1.,0.7925025329,0.7925025329,1.,1.,0.7925025329,0.7925025329,1.,1.,0.7925025329,0.7925025329,1.,1.,0.7925025329,-1.904964539,1.,1.,-1.904964539,0.7925025329,0.7921004061,1.,0.584602939,0.7925025329,1.,1.,0.584602939,0.7925025329,0.7921004061,1.,0.584602939,1.,1.,1.,1.,1.,1.,1.,1.,1.,1.,1.,1.,0.7925025329,1.,1.,0.7925025329,1.,1.,1.,-8.3379668615,0.7925025329,1.,1.,0.7925025329,1.,1.,1.,0.7921004061,1.,1.,1.,1.,1.,1.,1.,1.,1.,1.,1.,1.,0.7925025329,1.,0.5850050659,0.7925025329,1.,1.,0.5850050659,1.,1.,1.,0.5850050659,1.,1.,1.,0.5850050659,1.,0.7925025329,1.,0.5850050659,0.7925025329,1.,1.,1.,1.,1.,0.5850050659,0.5850050659,1.,0.7925025329,1.,1.,0.7925025329,1.,-0.4544929039,-0.869487838,1.,1.,1.,0.5850050659,1.,1.,1.,0.5850050659,1.,1.,0.5850050659,0.1700101317,1.,1.,1.,0.5850050659,1.,0.7923104056,-2.7353431233,-2.7353431233,0.7923104056,0.5846163498,1.,-8.9620811811,0.7924085576,1.,1.,-9.3774648313,1.,1.,1.,-8.547474963,1.,1.,1.,-8.547474963,1.,1.,-0.0394979697,-8.547474963,1.,1.,1.,-8.547474963,1.,1.,1.,-8.547474963,1.,1.,1.,-9.3774648313,1.,-9.1696726235,1.,1.,1.,1.,-7.5079769933,-7.5079769933,1.,1.,-9.3774648313,1.,1.,-9.3774648313,-9.3774648313,-9.3774648313,1.,-9.3774648313,1.,-9.3774648313,1.,1.,-9.3774648313,1.,1.,-3.1518439515,-3.9799392097,-3.9799392097,1.,-5.2256208798,1.,1.,1.;1.,-9.3774648313,-9.3774648313,-9.3774648313,1.,-9.3774648313,1.,-9.3774648313,1.,1.,-9.3774648313,-9.3774648313,-9.3774648313,-9.3774648313,1.,-9.3774648313,0.7925025329,1.,1.,0.7925025329,1.,1.,-9.3774648313,-9.3774648313,1.,-8.9616656434,1.,-8.9616656434,1.,-9.3774648313,-9.3774648313,-9.3774648313,1.,1.,1.,-9.3774648313,1.,1.,1.,-9.3774648313,1.,1.,1.,-9.3774648313,1.,1.,1.,-9.3774648313,-2.1124620061,1.,1.,-2.1124620061,1.,1.,1.,-9.3774648313,1.,1.,1.,-8.9616656434,1.,1.,1.,-9.3774648313,0.7925025329,1.,1.,0.7925025329,0.7925025329,1.,1.,0.7925025329,0.7925025329,1.,1.,0.7925025329,0.7925025329,1.,1.,0.7925025329,-1.904964539,1.,1.,-1.904964539,0.7925025329,0.7921004061,1.,0.584602939,0.7925025329,1.,1.,0.584602939,0.7925025329,0.7921004061,1.,0.584602939,1.,1.,1.,1.,1.,1.,1.,1.,1.,1.,1.,1.,0.7925025329,1.,1.,0.7925025329,1.,1.,1.,-8.3379668615,0.7925025329,1.,1.,0.7925025329,1.,1.,1.,0.7921004061,1.,1.,1.,1.,1.,1.,1.,1.,1.,1.,1.,1.,0.7925025329,1.,0.5850050659,0.7925025329,1.,1.,0.5850050659,1.,1.,1.,0.5850050659,1.,1.,1.,0.5850050659,1.,0.7925025329,1.,0.5850050659,0.7925025329,1.,1.,1.,1.,1.,0.5850050659,0.5850050659,1.,0.7925025329,1.,1.,0.7925025329,1.,-0.4544929039,-0.869487838,1.,1.,1.,0.5850050659,1.,1.,1.,0.5850050659,1.,1.,0.5850050659,0.1700101317,1.,1.,1.,0.5850050659,1.,0.7923104056,-2.7353431233,-2.7353431233,0.7923104056,0.5846163498,1.,-8.9620811811,0.7924085576,1.,1.,-9.3774648313,1.,1.,1.,-8.547474963,1.,1.,1.,-8.547474963,1.,1.,-0.0394979697,-8.547474963,1.,1.,1.,-8.547474963,1.,1.,1.,-8.547474963,1.,1.,1.,-9.3774648313,1.,-9.1696726235,1.,1.,1.,1.,-7.5079769933,-7.5079769933,1.,1.,-9.3774648313,1.,1.,-9.3774648313,-9.3774648313,-9.3774648313,1.,-9.3774648313,1.,-9.3774648313,1.,1.,-9.3774648313,1.,1.,-3.1518439515,-3.9799392097,-3.9799392097,1.,-5.2256208798,1.,1.,1.;1.,-9.3774648313,-9.3774648313,-9.3774648313,1.,-9.3774648313,1.,-9.3774648313,1.,1.,-9.3774648313,-9.3774648313,-9.3774648313,-9.3774648313,1.,-9.3774648313,0.7925025329,1.,1.,0.7925025329,1.,1.,-9.3774648313,-9.3774648313,1.,-8.9616656434,1.,-8.9616656434,1.,-9.3774648313,-9.3774648313,-9.3774648313,1.,1.,1.,-9.3774648313,1.,1.,1.,-9.3774648313,1.,1.,1.,-9.3774648313,1.,1.,1.,-9.3774648313,-2.1124620061,1.,1.,-2.1124620061,1.,1.,1.,-9.3774648313,1.,1.,1.,-8.9616656434,1.,1.,1.,-9.3774648313,0.7925025329,1.,1.,0.7925025329,0.7925025329,1.,1.,0.7925025329,0.7925025329,1.,1.,0.7925025329,0.7925025329,1.,1.,0.7925025329,-1.904964539,1.,1.,-1.904964539,0.7925025329,0.7921004061,1.,0.584602939,0.7925025329,1.,1.,0.584602939,0.7925025329,0.7921004061,1.,0.584602939,1.,1.,1.,1.,1.,1.,1.,1.,1.,1.,1.,1.,0.7925025329,1.,1.,0.7925025329,1.,1.,1.,-8.3379668615,0.7925025329,1.,1.,0.7925025329,1.,1.,1.,0.7921004061,1.,1.,1.,1.,1.,1.,1.,1.,1.,1.,1.,1.,0.7925025329,1.,0.5850050659,0.7925025329,1.,1.,0.5850050659,1.,1.,1.,0.5850050659,1.,1.,1.,0.5850050659,1.,0.7925025329,1.,0.5850050659,0.7925025329,1.,1.,1.,1.,1.,0.5850050659,0.5850050659,1.,0.7925025329,1.,1.,0.7925025329,1.,-0.4544929039,-0.869487838,1.,1.,1.,0.5850050659,1.,1.,1.,0.5850050659,1.,1.,0.5850050659,0.1700101317,1.,1.,1.,0.5850050659,1.,0.7923104056,-2.7353431233,-2.7353431233,0.7923104056,0.5846163498,1.,-8.9620811811,0.7924085576,1.,1.,-9.3774648313,1.,1.,1.,-8.547474963,1.,1.,1.,-8.547474963,1.,1.,-0.0394979697,-8.547474963,1.,1.,1.,-8.547474963,1.,1.,1.,-8.547474963,1.,1.,1.,-9.3774648313,1.,-9.1696726235,1.,1.,1.,1.,-7.5079769933,-7.5079769933,1.,1.,-9.3774648313,1.,1.,-9.3774648313,-9.3774648313,-9.3774648313,1.,-9.3774648313,1.,-9.3774648313,1.,1.,-9.3774648313,1.,1.,-3.1518439515,-3.9799392097,-3.9799392097,1.,-5.2256208798,1.,1.,1.;1.,-9.3774648313,-9.3774648313,-9.3774648313,1.,-9.3774648313,1.,-9.3774648313,1.,1.,-9.3774648313,-9.3774648313,-9.3774648313,-9.3774648313,1.,-9.3774648313,0.7925025329,1.,1.,0.7925025329,1.,1.,-9.3774648313,-9.3774648313,1.,-8.9616656434,1.,-8.9616656434,1.,-9.3774648313,-9.3774648313,-9.3774648313,1.,1.,1.,-9.3774648313,1.,1.,1.,-9.3774648313,1.,1.,1.,-9.3774648313,1.,1.,1.,-9.3774648313,-2.1124620061,1.,1.,-2.1124620061,1.,1.,1.,-9.3774648313,1.,1.,1.,-8.9616656434,1.,1.,1.,-9.3774648313,0.7925025329,1.,1.,0.7925025329,0.7925025329,1.,1.,0.7925025329,0.7925025329,1.,1.,0.7925025329,0.7925025329,1.,1.,0.7925025329,-1.904964539,1.,1.,-1.904964539,0.7925025329,0.7921004061,1.,0.584602939,0.7925025329,1.,1.,0.584602939,0.7925025329,0.7921004061,1.,0.584602939,1.,1.,1.,1.,1.,1.,1.,1.,1.,1.,1.,1.,0.7925025329,1.,1.,0.7925025329,1.,1.,1.,-8.3379668615,0.7925025329,1.,1.,0.7925025329,1.,1.,1.,0.7921004061,1.,1.,1.,1.,1.,1.,1.,1.,1.,1.,1.,1.,0.7925025329,1.,0.5850050659,0.7925025329,1.,1.,0.5850050659,1.,1.,1.,0.5850050659,1.,1.,1.,0.5850050659,1.,0.7925025329,1.,0.5850050659,0.7925025329,1.,1.,1.,1.,1.,0.5850050659,0.5850050659,1.,0.7925025329,1.,1.,0.7925025329,1.,-0.4544929039,-0.869487838,1.,1.,1.,0.5850050659,1.,1.,1.,0.5850050659,1.,1.,0.5850050659,0.1700101317,1.,1.,1.,0.5850050659,1.,0.7923104056,-2.7353431233,-2.7353431233,0.7923104056,0.5846163498,1.,-8.9620811811,0.7924085576,1.,1.,-9.3774648313,1.,1.,1.,-8.547474963,1.,1.,1.,-8.547474963,1.,1.,-0.0394979697,-8.547474963,1.,1.,1.,-8.547474963,1.,1.,1.,-8.547474963,1.,1.,1.,-9.3774648313,1.,-9.1696726235,1.,1.,1.,1.,-7.5079769933,-7.5079769933,1.,1.,-9.3774648313,1.,1.,-9.3774648313,-9.3774648313,-9.3774648313,1.,-9.3774648313,1.,-9.3774648313,1.,1.,-9.3774648313,1.,1.,-3.1518439515,-3.9799392097,-3.9799392097,1.,-5.2256208798,1.,1.,1.;1.,-9.3774648313,-9.3774648313,-9.3774648313,1.,-9.3774648313,1.,-9.3774648313,1.,1.,-9.3774648313,-9.3774648313,-9.3774648313,-9.3774648313,1.,-9.3774648313,0.7925025329,1.,1.,0.7925025329,1.,1.,-9.3774648313,-9.3774648313,1.,-8.9616656434,1.,-8.9616656434,1.,-9.3774648313,-9.3774648313,-9.3774648313,1.,1.,1.,-9.3774648313,1.,1.,1.,-9.3774648313,1.,1.,1.,-9.3774648313,1.,1.,1.,-9.3774648313,-2.1124620061,1.,1.,-2.1124620061,1.,1.,1.,-9.3774648313,1.,1.,1.,-8.9616656434,1.,1.,1.,-9.3774648313,0.7925025329,1.,1.,0.7925025329,0.7925025329,1.,1.,0.7925025329,0.7925025329,1.,1.,0.7925025329,0.7925025329,1.,1.,0.7925025329,-1.904964539,1.,1.,-1.904964539,0.7925025329,0.7921004061,1.,0.584602939,0.7925025329,1.,1.,0.584602939,0.7925025329,0.7921004061,1.,0.584602939,1.,1.,1.,1.,1.,1.,1.,1.,1.,1.,1.,1.,0.7925025329,1.,1.,0.7925025329,1.,1.,1.,-8.3379668615,0.7925025329,1.,1.,0.7925025329,1.,1.,1.,0.7921004061,1.,1.,1.,1.,1.,1.,1.,1.,1.,1.,1.,1.,0.7925025329,1.,0.5850050659,0.7925025329,1.,1.,0.5850050659,1.,1.,1.,0.5850050659,1.,1.,1.,0.5850050659,1.,0.7925025329,1.,0.5850050659,0.7925025329,1.,1.,1.,1.,1.,0.5850050659,0.5850050659,1.,0.7925025329,1.,1.,0.7925025329,1.,-0.4544929039,-0.869487838,1.,1.,1.,0.5850050659,1.,1.,1.,0.5850050659,1.,1.,0.5850050659,0.1700101317,1.,1.,1.,0.5850050659,1.,0.7923104056,-2.7353431233,-2.7353431233,0.7923104056,0.5846163498,1.,-8.9620811811,0.7924085576,1.,1.,-9.3774648313,1.,1.,1.,-8.547474963,1.,1.,1.,-8.547474963,1.,1.,-0.0394979697,-8.547474963,1.,1.,1.,-8.547474963,1.,1.,1.,-8.547474963,1.,1.,1.,-9.3774648313,1.,-9.1696726235,1.,1.,1.,1.,-7.5079769933,-7.5079769933,1.,1.,-9.3774648313,1.,1.,-9.3774648313,-9.3774648313,-9.3774648313,1.,-9.3774648313,1.,-9.3774648313,1.,1.,-9.3774648313,1.,1.,-3.1518439515,-3.9799392097,-3.9799392097,1.,-5.2256208798,1.,1.,1.;1.,-9.3774648313,-9.3774648313,-9.3774648313,1.,-9.3774648313,1.,-9.3774648313,1.,1.,-9.3774648313,-9.3774648313,-9.3774648313,-9.3774648313,1.,-9.3774648313,0.7925025329,1.,1.,0.7925025329,1.,1.,-9.3774648313,-9.3774648313,1.,-8.9616656434,1.,-8.9616656434,1.,-9.3774648313,-9.3774648313,-9.3774648313,1.,1.,1.,-9.3774648313,1.,1.,1.,-9.3774648313,1.,1.,1.,-9.3774648313,1.,1.,1.,-9.3774648313,-2.1124620061,1.,1.,-2.1124620061,1.,1.,1.,-9.3774648313,1.,1.,1.,-8.9616656434,1.,1.,1.,-9.3774648313,0.7925025329,1.,1.,0.7925025329,0.7925025329,1.,1.,0.7925025329,0.7925025329,1.,1.,0.7925025329,0.7925025329,1.,1.,0.7925025329,-1.904964539,1.,1.,-1.904964539,0.7925025329,0.7921004061,1.,0.584602939,0.7925025329,1.,1.,0.584602939,0.7925025329,0.7921004061,1.,0.584602939,1.,1.,1.,1.,1.,1.,1.,1.,1.,1.,1.,1.,0.7925025329,1.,1.,0.7925025329,1.,1.,1.,-8.3379668615,0.7925025329,1.,1.,0.7925025329,1.,1.,1.,0.7921004061,1.,1.,1.,1.,1.,1.,1.,1.,1.,1.,1.,1.,0.7925025329,1.,0.5850050659,0.7925025329,1.,1.,0.5850050659,1.,1.,1.,0.5850050659,1.,1.,1.,0.5850050659,1.,0.7925025329,1.,0.5850050659,0.7925025329,1.,1.,1.,1.,1.,0.5850050659,0.5850050659,1.,0.7925025329,1.,1.,0.7925025329,1.,-0.4544929039,-0.869487838,1.,1.,1.,0.5850050659,1.,1.,1.,0.5850050659,1.,1.,0.5850050659,0.1700101317,1.,1.,1.,0.5850050659,1.,0.7923104056,-2.7353431233,-2.7353431233,0.7923104056,0.5846163498,1.,-8.9620811811,0.7924085576,1.,1.,-9.3774648313,1.,1.,1.,-8.547474963,1.,1.,1.,-8.547474963,1.,1.,-0.0394979697,-8.547474963,1.,1.,1.,-8.547474963,1.,1.,1.,-8.547474963,1.,1.,1.,-9.3774648313,1.,-9.1696726235,1.,1.,1.,1.,-7.5079769933,-7.5079769933,1.,1.,-9.3774648313,1.,1.,-9.3774648313,-9.3774648313,-9.3774648313,1.,-9.3774648313,1.,-9.3774648313,1.,1.,-9.3774648313,1.,1.,-3.1518439515,-3.9799392097,-3.9799392097,1.,-5.2256208798,1.,1.,1.;1.,-9.3774648313,-9.3774648313,-9.3774648313,1.,-9.3774648313,1.,-9.3774648313,1.,1.,-9.3774648313,-9.3774648313,-9.3774648313,-9.3774648313,1.,-9.3774648313,0.7925025329,1.,1.,0.7925025329,1.,1.,-9.3774648313,-9.3774648313,1.,-8.9616656434,1.,-8.9616656434,1.,-9.3774648313,-9.3774648313,-9.3774648313,1.,1.,1.,-9.3774648313,1.,1.,1.,-9.3774648313,1.,1.,1.,-9.3774648313,1.,1.,1.,-9.3774648313,-2.1124620061,1.,1.,-2.1124620061,1.,1.,1.,-9.3774648313,1.,1.,1.,-8.9616656434,1.,1.,1.,-9.3774648313,0.7925025329,1.,1.,0.7925025329,0.7925025329,1.,1.,0.7925025329,0.7925025329,1.,1.,0.7925025329,0.7925025329,1.,1.,0.7925025329,-1.904964539,1.,1.,-1.904964539,0.7925025329,0.7921004061,1.,0.584602939,0.7925025329,1.,1.,0.584602939,0.7925025329,0.7921004061,1.,0.584602939,1.,1.,1.,1.,1.,1.,1.,1.,1.,1.,1.,1.,0.7925025329,1.,1.,0.7925025329,1.,1.,1.,-8.3379668615,0.7925025329,1.,1.,0.7925025329,1.,1.,1.,0.7921004061,1.,1.,1.,1.,1.,1.,1.,1.,1.,1.,1.,1.,0.7925025329,1.,0.5850050659,0.7925025329,1.,1.,0.5850050659,1.,1.,1.,0.5850050659,1.,1.,1.,0.5850050659,1.,0.7925025329,1.,0.5850050659,0.7925025329,1.,1.,1.,1.,1.,0.5850050659,0.5850050659,1.,0.7925025329,1.,1.,0.7925025329,1.,-0.4544929039,-0.869487838,1.,1.,1.,0.5850050659,1.,1.,1.,0.5850050659,1.,1.,0.5850050659,0.1700101317,1.,1.,1.,0.5850050659,1.,0.7923104056,-2.7353431233,-2.7353431233,0.7923104056,0.5846163498,1.,-8.9620811811,0.7924085576,1.,1.,-9.3774648313,1.,1.,1.,-8.547474963,1.,1.,1.,-8.547474963,1.,1.,-0.0394979697,-8.547474963,1.,1.,1.,-8.547474963,1.,1.,1.,-8.547474963,1.,1.,1.,-9.3774648313,1.,-9.1696726235,1.,1.,1.,1.,-7.5079769933,-7.5079769933,1.,1.,-9.3774648313,1.,1.,-9.3774648313,-9.3774648313,-9.3774648313,1.,-9.3774648313,1.,-9.3774648313,1.,1.,-9.3774648313,1.,1.,-3.1518439515,-3.9799392097,-3.9799392097,1.,-5.2256208798,1.,1.,1.;1.,-9.3774648313,-9.3774648313,-9.3774648313,1.,-9.3774648313,1.,-9.3774648313,1.,1.,-9.3774648313,-9.3774648313,-9.3774648313,-9.3774648313,1.,-9.3774648313,0.7925025329,1.,1.,0.7925025329,1.,1.,-9.3774648313,-9.3774648313,1.,-8.9616656434,1.,-8.9616656434,1.,-9.3774648313,-9.3774648313,-9.3774648313,1.,1.,1.,-9.3774648313,1.,1.,1.,-9.3774648313,1.,1.,1.,-9.3774648313,1.,1.,1.,-9.3774648313,-2.1124620061,1.,1.,-2.1124620061,1.,1.,1.,-9.3774648313,1.,1.,1.,-8.9616656434,1.,1.,1.,-9.3774648313,0.7925025329,1.,1.,0.7925025329,0.7925025329,1.,1.,0.7925025329,0.7925025329,1.,1.,0.7925025329,0.7925025329,1.,1.,0.7925025329,-1.904964539,1.,1.,-1.904964539,0.7925025329,0.7921004061,1.,0.584602939,0.7925025329,1.,1.,0.584602939,0.7925025329,0.7921004061,1.,0.584602939,1.,1.,1.,1.,1.,1.,1.,1.,1.,1.,1.,1.,0.7925025329,1.,1.,0.7925025329,1.,1.,1.,-8.3379668615,0.7925025329,1.,1.,0.7925025329,1.,1.,1.,0.7921004061,1.,1.,1.,1.,1.,1.,1.,1.,1.,1.,1.,1.,0.7925025329,1.,0.5850050659,0.7925025329,1.,1.,0.5850050659,1.,1.,1.,0.5850050659,1.,1.,1.,0.5850050659,1.,0.7925025329,1.,0.5850050659,0.7925025329,1.,1.,1.,1.,1.,0.5850050659,0.5850050659,1.,0.7925025329,1.,1.,0.7925025329,1.,-0.4544929039,-0.869487838,1.,1.,1.,0.5850050659,1.,1.,1.,0.5850050659,1.,1.,0.5850050659,0.1700101317,1.,1.,1.,0.5850050659,1.,0.7923104056,-2.7353431233,-2.7353431233,0.7923104056,0.5846163498,1.,-8.9620811811,0.7924085576,1.,1.,-9.3774648313,1.,1.,1.,-8.547474963,1.,1.,1.,-8.547474963,1.,1.,-0.0394979697,-8.547474963,1.,1.,1.,-8.547474963,1.,1.,1.,-8.547474963,1.,1.,1.,-9.3774648313,1.,-9.1696726235,1.,1.,1.,1.,-7.5079769933,-7.5079769933,1.,1.,-9.3774648313,1.,1.,-9.3774648313,-9.3774648313,-9.3774648313,1.,-9.3774648313,1.,-9.3774648313,1.,1.,-9.3774648313,1.,1.,-3.1518439515,-3.9799392097,-3.9799392097,1.,-5.2256208798,1.,1.,1.;1.,-9.3774648313,-9.3774648313,-9.3774648313,1.,-9.3774648313,1.,-9.3774648313,1.,1.,-9.3774648313,-9.3774648313,-9.3774648313,-9.3774648313,1.,-9.3774648313,0.7925025329,1.,1.,0.7925025329,1.,1.,-9.3774648313,-9.3774648313,1.,-8.9616656434,1.,-8.9616656434,1.,-9.3774648313,-9.3774648313,-9.3774648313,1.,1.,1.,-9.3774648313,1.,1.,1.,-9.3774648313,1.,1.,1.,-9.3774648313,1.,1.,1.,-9.3774648313,-2.1124620061,1.,1.,-2.1124620061,1.,1.,1.,-9.3774648313,1.,1.,1.,-8.9616656434,1.,1.,1.,-9.3774648313,0.7925025329,1.,1.,0.7925025329,0.7925025329,1.,1.,0.7925025329,0.7925025329,1.,1.,0.7925025329,0.7925025329,1.,1.,0.7925025329,-1.904964539,1.,1.,-1.904964539,0.7925025329,0.7921004061,1.,0.584602939,0.7925025329,1.,1.,0.584602939,0.7925025329,0.7921004061,1.,0.584602939,1.,1.,1.,1.,1.,1.,1.,1.,1.,1.,1.,1.,0.7925025329,1.,1.,0.7925025329,1.,1.,1.,-8.3379668615,0.7925025329,1.,1.,0.7925025329,1.,1.,1.,0.7921004061,1.,1.,1.,1.,1.,1.,1.,1.,1.,1.,1.,1.,0.7925025329,1.,0.5850050659,0.7925025329,1.,1.,0.5850050659,1.,1.,1.,0.5850050659,1.,1.,1.,0.5850050659,1.,0.7925025329,1.,0.5850050659,0.7925025329,1.,1.,1.,1.,1.,0.5850050659,0.5850050659,1.,0.7925025329,1.,1.,0.7925025329,1.,-0.4544929039,-0.869487838,1.,1.,1.,0.5850050659,1.,1.,1.,0.5850050659,1.,1.,0.5850050659,0.1700101317,1.,1.,1.,0.5850050659,1.,0.7923104056,-2.7353431233,-2.7353431233,0.7923104056,0.5846163498,1.,-8.9620811811,0.7924085576,1.,1.,-9.3774648313,1.,1.,1.,-8.547474963,1.,1.,1.,-8.547474963,1.,1.,-0.0394979697,-8.547474963,1.,1.,1.,-8.547474963,1.,1.,1.,-8.547474963,1.,1.,1.,-9.3774648313,1.,-9.1696726235,1.,1.,1.,1.,-7.5079769933,-7.5079769933,1.,1.,-9.3774648313,1.,1.,-9.3774648313,-9.3774648313,-9.3774648313,1.,-9.3774648313,1.,-9.3774648313,1.,1.,-9.3774648313,1.,1.,-3.1518439515,-3.9799392097,-3.9799392097,1.,-5.2256208798,1.,1.,1.;1.,-9.3774648313,-9.3774648313,-9.3774648313,1.,-9.3774648313,1.,-9.3774648313,1.,1.,-9.3774648313,-9.3774648313,-9.3774648313,-9.3774648313,1.,-9.3774648313,0.7925025329,1.,1.,0.7925025329,1.,1.,-9.3774648313,-9.3774648313,1.,-8.9616656434,1.,-8.9616656434,1.,-9.3774648313,-9.3774648313,-9.3774648313,1.,1.,1.,-9.3774648313,1.,1.,1.,-9.3774648313,1.,1.,1.,-9.3774648313,1.,1.,1.,-9.3774648313,-2.1124620061,1.,1.,-2.1124620061,1.,1.,1.,-9.3774648313,1.,1.,1.,-8.9616656434,1.,1.,1.,-9.3774648313,0.7925025329,1.,1.,0.7925025329,0.7925025329,1.,1.,0.7925025329,0.7925025329,1.,1.,0.7925025329,0.7925025329,1.,1.,0.7925025329,-1.904964539,1.,1.,-1.904964539,0.7925025329,0.7921004061,1.,0.584602939,0.7925025329,1.,1.,0.584602939,0.7925025329,0.7921004061,1.,0.584602939,1.,1.,1.,1.,1.,1.,1.,1.,1.,1.,1.,1.,0.7925025329,1.,1.,0.7925025329,1.,1.,1.,-8.3379668615,0.7925025329,1.,1.,0.7925025329,1.,1.,1.,0.7921004061,1.,1.,1.,1.,1.,1.,1.,1.,1.,1.,1.,1.,0.7925025329,1.,0.5850050659,0.7925025329,1.,1.,0.5850050659,1.,1.,1.,0.5850050659,1.,1.,1.,0.5850050659,1.,0.7925025329,1.,0.5850050659,0.7925025329,1.,1.,1.,1.,1.,0.5850050659,0.5850050659,1.,0.7925025329,1.,1.,0.7925025329,1.,-0.4544929039,-0.869487838,1.,1.,1.,0.5850050659,1.,1.,1.,0.5850050659,1.,1.,0.5850050659,0.1700101317,1.,1.,1.,0.5850050659,1.,0.7923104056,-2.7353431233,-2.7353431233,0.7923104056,0.5846163498,1.,-8.9620811811,0.7924085576,1.,1.,-9.3774648313,1.,1.,1.,-8.547474963,1.,1.,1.,-8.547474963,1.,1.,-0.0394979697,-8.547474963,1.,1.,1.,-8.547474963,1.,1.,1.,-8.547474963,1.,1.,1.,-9.3774648313,1.,-9.1696726235,1.,1.,1.,1.,-7.5079769933,-7.5079769933,1.,1.,-9.3774648313,1.,1.,-9.3774648313,-9.3774648313,-9.3774648313,1.,-9.3774648313,1.,-9.3774648313,1.,1.,-9.3774648313,1.,1.,-3.1518439515,-3.9799392097,-3.9799392097,1.,-5.2256208798,1.,1.,1.;1.,-9.3774648313,-9.3774648313,-9.3774648313,1.,-9.3774648313,1.,-9.3774648313,1.,1.,-9.3774648313,-9.3774648313,-9.3774648313,-9.3774648313,1.,-9.3774648313,0.7925025329,1.,1.,0.7925025329,1.,1.,-9.3774648313,-9.3774648313,1.,-8.9616656434,1.,-8.9616656434,1.,-9.3774648313,-9.3774648313,-9.3774648313,1.,1.,1.,-9.3774648313,1.,1.,1.,-9.3774648313,1.,1.,1.,-9.3774648313,1.,1.,1.,-9.3774648313,-2.1124620061,1.,1.,-2.1124620061,1.,1.,1.,-9.3774648313,1.,1.,1.,-8.9616656434,1.,1.,1.,-9.3774648313,0.7925025329,1.,1.,0.7925025329,0.7925025329,1.,1.,0.7925025329,0.7925025329,1.,1.,0.7925025329,0.7925025329,1.,1.,0.7925025329,-1.904964539,1.,1.,-1.904964539,0.7925025329,0.7921004061,1.,0.584602939,0.7925025329,1.,1.,0.584602939,0.7925025329,0.7921004061,1.,0.584602939,1.,1.,1.,1.,1.,1.,1.,1.,1.,1.,1.,1.,0.7925025329,1.,1.,0.7925025329,1.,1.,1.,-8.3379668615,0.7925025329,1.,1.,0.7925025329,1.,1.,1.,0.7921004061,1.,1.,1.,1.,1.,1.,1.,1.,1.,1.,1.,1.,0.7925025329,1.,0.5850050659,0.7925025329,1.,1.,0.5850050659,1.,1.,1.,0.5850050659,1.,1.,1.,0.5850050659,1.,0.7925025329,1.,0.5850050659,0.7925025329,1.,1.,1.,1.,1.,0.5850050659,0.5850050659,1.,0.7925025329,1.,1.,0.7925025329,1.,-0.4544929039,-0.869487838,1.,1.,1.,0.5850050659,1.,1.,1.,0.5850050659,1.,1.,0.5850050659,0.1700101317,1.,1.,1.,0.5850050659,1.,0.7923104056,-2.7353431233,-2.7353431233,0.7923104056,0.5846163498,1.,-8.9620811811,0.7924085576,1.,1.,-9.3774648313,1.,1.,1.,-8.547474963,1.,1.,1.,-8.547474963,1.,1.,-0.0394979697,-8.547474963,1.,1.,1.,-8.547474963,1.,1.,1.,-8.547474963,1.,1.,1.,-9.3774648313,1.,-9.1696726235,1.,1.,1.,1.,-7.5079769933,-7.5079769933,1.,1.,-9.3774648313,1.,1.,-9.3774648313,-9.3774648313,-9.3774648313,1.,-9.3774648313,1.,-9.3774648313,1.,1.,-9.3774648313,1.,1.,-3.1518439515,-3.9799392097,-3.9799392097,1.,-5.2256208798,1.,1.,1.;1.,-9.3774648313,-9.3774648313,-9.3774648313,1.,-9.3774648313,1.,-9.3774648313,1.,1.,-9.3774648313,-9.3774648313,-9.3774648313,-9.3774648313,1.,-9.3774648313,0.7925025329,1.,1.,0.7925025329,1.,1.,-9.3774648313,-9.3774648313,1.,-8.9616656434,1.,-8.9616656434,1.,-9.3774648313,-9.3774648313,-9.3774648313,1.,1.,1.,-9.3774648313,1.,1.,1.,-9.3774648313,1.,1.,1.,-9.3774648313,1.,1.,1.,-9.3774648313,-2.1124620061,1.,1.,-2.1124620061,1.,1.,1.,-9.3774648313,1.,1.,1.,-8.9616656434,1.,1.,1.,-9.3774648313,0.7925025329,1.,1.,0.7925025329,0.7925025329,1.,1.,0.7925025329,0.7925025329,1.,1.,0.7925025329,0.7925025329,1.,1.,0.7925025329,-1.904964539,1.,1.,-1.904964539,0.7925025329,0.7921004061,1.,0.584602939,0.7925025329,1.,1.,0.584602939,0.7925025329,0.7921004061,1.,0.584602939,1.,1.,1.,1.,1.,1.,1.,1.,1.,1.,1.,1.,0.7925025329,1.,1.,0.7925025329,1.,1.,1.,-8.3379668615,0.7925025329,1.,1.,0.7925025329,1.,1.,1.,0.7921004061,1.,1.,1.,1.,1.,1.,1.,1.,1.,1.,1.,1.,0.7925025329,1.,0.5850050659,0.7925025329,1.,1.,0.5850050659,1.,1.,1.,0.5850050659,1.,1.,1.,0.5850050659,1.,0.7925025329,1.,0.5850050659,0.7925025329,1.,1.,1.,1.,1.,0.5850050659,0.5850050659,1.,0.7925025329,1.,1.,0.7925025329,1.,-0.4544929039,-0.869487838,1.,1.,1.,0.5850050659,1.,1.,1.,0.5850050659,1.,1.,0.5850050659,0.1700101317,1.,1.,1.,0.5850050659,1.,0.7923104056,-2.7353431233,-2.7353431233,0.7923104056,0.5846163498,1.,-8.9620811811,0.7924085576,1.,1.,-9.3774648313,1.,1.,1.,-8.547474963,1.,1.,1.,-8.547474963,1.,1.,-0.0394979697,-8.547474963,1.,1.,1.,-8.547474963,1.,1.,1.,-8.547474963,1.,1.,1.,-9.3774648313,1.,-9.1696726235,1.,1.,1.,1.,-7.5079769933,-7.5079769933,1.,1.,-9.3774648313,1.,1.,-9.3774648313,-9.3774648313,-9.3774648313,1.,-9.3774648313,1.,-9.3774648313,1.,1.,-9.3774648313,1.,1.,-3.1518439515,-3.9799392097,-3.9799392097,1.,-5.2256208798,1.,1.,1.;1.,-9.3774648313,-9.3774648313,-9.3774648313,1.,-9.3774648313,1.,-9.3774648313,1.,1.,-9.3774648313,-9.3774648313,-9.3774648313,-9.3774648313,1.,-9.3774648313,0.7925025329,1.,1.,0.7925025329,1.,1.,-9.3774648313,-9.3774648313,1.,-8.9616656434,1.,-8.9616656434,1.,-9.3774648313,-9.3774648313,-9.3774648313,1.,1.,1.,-9.3774648313,1.,1.,1.,-9.3774648313,1.,1.,1.,-9.3774648313,1.,1.,1.,-9.3774648313,-2.1124620061,1.,1.,-2.1124620061,1.,1.,1.,-9.3774648313,1.,1.,1.,-8.9616656434,1.,1.,1.,-9.3774648313,0.7925025329,1.,1.,0.7925025329,0.7925025329,1.,1.,0.7925025329,0.7925025329,1.,1.,0.7925025329,0.7925025329,1.,1.,0.7925025329,-1.904964539,1.,1.,-1.904964539,0.7925025329,0.7921004061,1.,0.584602939,0.7925025329,1.,1.,0.584602939,0.7925025329,0.7921004061,1.,0.584602939,1.,1.,1.,1.,1.,1.,1.,1.,1.,1.,1.,1.,0.7925025329,1.,1.,0.7925025329,1.,1.,1.,-8.3379668615,0.7925025329,1.,1.,0.7925025329,1.,1.,1.,0.7921004061,1.,1.,1.,1.,1.,1.,1.,1.,1.,1.,1.,1.,0.7925025329,1.,0.5850050659,0.7925025329,1.,1.,0.5850050659,1.,1.,1.,0.5850050659,1.,1.,1.,0.5850050659,1.,0.7925025329,1.,0.5850050659,0.7925025329,1.,1.,1.,1.,1.,0.5850050659,0.5850050659,1.,0.7925025329,1.,1.,0.7925025329,1.,-0.4544929039,-0.869487838,1.,1.,1.,0.5850050659,1.,1.,1.,0.5850050659,1.,1.,0.5850050659,0.1700101317,1.,1.,1.,0.5850050659,1.,0.7923104056,-2.7353431233,-2.7353431233,0.7923104056,0.5846163498,1.,-8.9620811811,0.7924085576,1.,1.,-9.3774648313,1.,1.,1.,-8.547474963,1.,1.,1.,-8.547474963,1.,1.,-0.0394979697,-8.547474963,1.,1.,1.,-8.547474963,1.,1.,1.,-8.547474963,1.,1.,1.,-9.3774648313,1.,-9.1696726235,1.,1.,1.,1.,-7.5079769933,-7.5079769933,1.,1.,-9.3774648313,1.,1.,-9.3774648313,-9.3774648313,-9.3774648313,1.,-9.3774648313,1.,-9.3774648313,1.,1.,-9.3774648313,1.,1.,-3.1518439515,-3.9799392097,-3.9799392097,1.,-5.2256208798,1.,1.,1.;1.,-9.3774648313,-9.3774648313,-9.3774648313,1.,-9.3774648313,1.,-9.3774648313,1.,1.,-9.3774648313,-9.3774648313,-9.3774648313,-9.3774648313,1.,-9.3774648313,0.7925025329,1.,1.,0.7925025329,1.,1.,-9.3774648313,-9.3774648313,1.,-8.9616656434,1.,-8.9616656434,1.,-9.3774648313,-9.3774648313,-9.3774648313,1.,1.,1.,-9.3774648313,1.,1.,1.,-9.3774648313,1.,1.,1.,-9.3774648313,1.,1.,1.,-9.3774648313,-2.1124620061,1.,1.,-2.1124620061,1.,1.,1.,-9.3774648313,1.,1.,1.,-8.9616656434,1.,1.,1.,-9.3774648313,0.7925025329,1.,1.,0.7925025329,0.7925025329,1.,1.,0.7925025329,0.7925025329,1.,1.,0.7925025329,0.7925025329,1.,1.,0.7925025329,-1.904964539,1.,1.,-1.904964539,0.7925025329,0.7921004061,1.,0.584602939,0.7925025329,1.,1.,0.584602939,0.7925025329,0.7921004061,1.,0.584602939,1.,1.,1.,1.,1.,1.,1.,1.,1.,1.,1.,1.,0.7925025329,1.,1.,0.7925025329,1.,1.,1.,-8.3379668615,0.7925025329,1.,1.,0.7925025329,1.,1.,1.,0.7921004061,1.,1.,1.,1.,1.,1.,1.,1.,1.,1.,1.,1.,0.7925025329,1.,0.5850050659,0.7925025329,1.,1.,0.5850050659,1.,1.,1.,0.5850050659,1.,1.,1.,0.5850050659,1.,0.7925025329,1.,0.5850050659,0.7925025329,1.,1.,1.,1.,1.,0.5850050659,0.5850050659,1.,0.7925025329,1.,1.,0.7925025329,1.,-0.4544929039,-0.869487838,1.,1.,1.,0.5850050659,1.,1.,1.,0.5850050659,1.,1.,0.5850050659,0.1700101317,1.,1.,1.,0.5850050659,1.,0.7923104056,-2.7353431233,-2.7353431233,0.7923104056,0.5846163498,1.,-8.9620811811,0.7924085576,1.,1.,-9.3774648313,1.,1.,1.,-8.547474963,1.,1.,1.,-8.547474963,1.,1.,-0.0394979697,-8.547474963,1.,1.,1.,-8.547474963,1.,1.,1.,-8.547474963,1.,1.,1.,-9.3774648313,1.,-9.1696726235,1.,1.,1.,1.,-7.5079769933,-7.5079769933,1.,1.,-9.3774648313,1.,1.,-9.3774648313,-9.3774648313,-9.3774648313,1.,-9.3774648313,1.,-9.3774648313,1.,1.,-9.3774648313,1.,1.,-3.1518439515,-3.9799392097,-3.9799392097,1.,-5.2256208798,1.,1.,1.;1.,-9.3774648313,-9.3774648313,-9.3774648313,1.,-9.3774648313,1.,-9.3774648313,1.,1.,-9.3774648313,-9.3774648313,-9.3774648313,-9.3774648313,1.,-9.3774648313,0.7925025329,1.,1.,0.7925025329,1.,1.,-9.3774648313,-9.3774648313,1.,-8.9616656434,1.,-8.9616656434,1.,-9.3774648313,-9.3774648313,-9.3774648313,1.,1.,1.,-9.3774648313,1.,1.,1.,-9.3774648313,1.,1.,1.,-9.3774648313,1.,1.,1.,-9.3774648313,-2.1124620061,1.,1.,-2.1124620061,1.,1.,1.,-9.3774648313,1.,1.,1.,-8.9616656434,1.,1.,1.,-9.3774648313,0.7925025329,1.,1.,0.7925025329,0.7925025329,1.,1.,0.7925025329,0.7925025329,1.,1.,0.7925025329,0.7925025329,1.,1.,0.7925025329,-1.904964539,1.,1.,-1.904964539,0.7925025329,0.7921004061,1.,0.584602939,0.7925025329,1.,1.,0.584602939,0.7925025329,0.7921004061,1.,0.584602939,1.,1.,1.,1.,1.,1.,1.,1.,1.,1.,1.,1.,0.7925025329,1.,1.,0.7925025329,1.,1.,1.,-8.3379668615,0.7925025329,1.,1.,0.7925025329,1.,1.,1.,0.7921004061,1.,1.,1.,1.,1.,1.,1.,1.,1.,1.,1.,1.,0.7925025329,1.,0.5850050659,0.7925025329,1.,1.,0.5850050659,1.,1.,1.,0.5850050659,1.,1.,1.,0.5850050659,1.,0.7925025329,1.,0.5850050659,0.7925025329,1.,1.,1.,1.,1.,0.5850050659,0.5850050659,1.,0.7925025329,1.,1.,0.7925025329,1.,-0.4544929039,-0.869487838,1.,1.,1.,0.5850050659,1.,1.,1.,0.5850050659,1.,1.,0.5850050659,0.1700101317,1.,1.,1.,0.5850050659,1.,0.7923104056,-2.7353431233,-2.7353431233,0.7923104056,0.5846163498,1.,-8.9620811811,0.7924085576,1.,1.,-9.3774648313,1.,1.,1.,-8.547474963,1.,1.,1.,-8.547474963,1.,1.,-0.0394979697,-8.547474963,1.,1.,1.,-8.547474963,1.,1.,1.,-8.547474963,1.,1.,1.,-9.3774648313,1.,-9.1696726235,1.,1.,1.,1.,-7.5079769933,-7.5079769933,1.,1.,-9.3774648313,1.,1.,-9.3774648313,-9.3774648313,-9.3774648313,1.,-9.3774648313,1.,-9.3774648313,1.,1.,-9.3774648313,1.,1.,-3.1518439515,-3.9799392097,-3.9799392097,1.,-5.2256208798,1.,1.,1.;1.,-9.3774648313,-9.3774648313,-9.3774648313,1.,-9.3774648313,1.,-9.3774648313,1.,1.,-9.3774648313,-9.3774648313,-9.3774648313,-9.3774648313,1.,-9.3774648313,0.7925025329,1.,1.,0.7925025329,1.,1.,-9.3774648313,-9.3774648313,1.,-8.9616656434,1.,-8.9616656434,1.,-9.3774648313,-9.3774648313,-9.3774648313,1.,1.,1.,-9.3774648313,1.,1.,1.,-9.3774648313,1.,1.,1.,-9.3774648313,1.,1.,1.,-9.3774648313,-2.1124620061,1.,1.,-2.1124620061,1.,1.,1.,-9.3774648313,1.,1.,1.,-8.9616656434,1.,1.,1.,-9.3774648313,0.7925025329,1.,1.,0.7925025329,0.7925025329,1.,1.,0.7925025329,0.7925025329,1.,1.,0.7925025329,0.7925025329,1.,1.,0.7925025329,-1.904964539,1.,1.,-1.904964539,0.7925025329,0.7921004061,1.,0.584602939,0.7925025329,1.,1.,0.584602939,0.7925025329,0.7921004061,1.,0.584602939,1.,1.,1.,1.,1.,1.,1.,1.,1.,1.,1.,1.,0.7925025329,1.,1.,0.7925025329,1.,1.,1.,-8.3379668615,0.7925025329,1.,1.,0.7925025329,1.,1.,1.,0.7921004061,1.,1.,1.,1.,1.,1.,1.,1.,1.,1.,1.,1.,0.7925025329,1.,0.5850050659,0.7925025329,1.,1.,0.5850050659,1.,1.,1.,0.5850050659,1.,1.,1.,0.5850050659,1.,0.7925025329,1.,0.5850050659,0.7925025329,1.,1.,1.,1.,1.,0.5850050659,0.5850050659,1.,0.7925025329,1.,1.,0.7925025329,1.,-0.4544929039,-0.869487838,1.,1.,1.,0.5850050659,1.,1.,1.,0.5850050659,1.,1.,0.5850050659,0.1700101317,1.,1.,1.,0.5850050659,1.,0.7923104056,-2.7353431233,-2.7353431233,0.7923104056,0.5846163498,1.,-8.9620811811,0.7924085576,1.,1.,-9.3774648313,1.,1.,1.,-8.547474963,1.,1.,1.,-8.547474963,1.,1.,-0.0394979697,-8.547474963,1.,1.,1.,-8.547474963,1.,1.,1.,-8.547474963,1.,1.,1.,-9.3774648313,1.,-9.1696726235,1.,1.,1.,1.,-7.5079769933,-7.5079769933,1.,1.,-9.3774648313,1.,1.,-9.3774648313,-9.3774648313,-9.3774648313,1.,-9.3774648313,1.,-9.3774648313,1.,1.,-9.3774648313,1.,1.,-3.1518439515,-3.9799392097,-3.9799392097,1.,-5.2256208798,1.,1.,1.;1.,-9.3774648313,-9.3774648313,-9.3774648313,1.,-9.3774648313,1.,-9.3774648313,1.,1.,-9.3774648313,-9.3774648313,-9.3774648313,-9.3774648313,1.,-9.3774648313,0.7925025329,1.,1.,0.7925025329,1.,1.,-9.3774648313,-9.3774648313,1.,-8.9616656434,1.,-8.9616656434,1.,-9.3774648313,-9.3774648313,-9.3774648313,1.,1.,1.,-9.3774648313,1.,1.,1.,-9.3774648313,1.,1.,1.,-9.3774648313,1.,1.,1.,-9.3774648313,-2.1124620061,1.,1.,-2.1124620061,1.,1.,1.,-9.3774648313,1.,1.,1.,-8.9616656434,1.,1.,1.,-9.3774648313,0.7925025329,1.,1.,0.7925025329,0.7925025329,1.,1.,0.7925025329,0.7925025329,1.,1.,0.7925025329,0.7925025329,1.,1.,0.7925025329,-1.904964539,1.,1.,-1.904964539,0.7925025329,0.7921004061,1.,0.584602939,0.7925025329,1.,1.,0.584602939,0.7925025329,0.7921004061,1.,0.584602939,1.,1.,1.,1.,1.,1.,1.,1.,1.,1.,1.,1.,0.7925025329,1.,1.,0.7925025329,1.,1.,1.,-8.3379668615,0.7925025329,1.,1.,0.7925025329,1.,1.,1.,0.7921004061,1.,1.,1.,1.,1.,1.,1.,1.,1.,1.,1.,1.,0.7925025329,1.,0.5850050659,0.7925025329,1.,1.,0.5850050659,1.,1.,1.,0.5850050659,1.,1.,1.,0.5850050659,1.,0.7925025329,1.,0.5850050659,0.7925025329,1.,1.,1.,1.,1.,0.5850050659,0.5850050659,1.,0.7925025329,1.,1.,0.7925025329,1.,-0.4544929039,-0.869487838,1.,1.,1.,0.5850050659,1.,1.,1.,0.5850050659,1.,1.,0.5850050659,0.1700101317,1.,1.,1.,0.5850050659,1.,0.7923104056,-2.7353431233,-2.7353431233,0.7923104056,0.5846163498,1.,-8.9620811811,0.7924085576,1.,1.,-9.3774648313,1.,1.,1.,-8.547474963,1.,1.,1.,-8.547474963,1.,1.,-0.0394979697,-8.547474963,1.,1.,1.,-8.547474963,1.,1.,1.,-8.547474963,1.,1.,1.,-9.3774648313,1.,-9.1696726235,1.,1.,1.,1.,-7.5079769933,-7.5079769933,1.,1.,-9.3774648313,1.,1.,-9.3774648313,-9.3774648313,-9.3774648313,1.,-9.3774648313,1.,-9.3774648313,1.,1.,-9.3774648313,1.,1.,-3.1518439515,-3.9799392097,-3.9799392097,1.,-5.2256208798,1.,1.,1.;1.,-9.3774648313,-9.3774648313,-9.3774648313,1.,-9.3774648313,1.,-9.3774648313,1.,1.,-9.3774648313,-9.3774648313,-9.3774648313,-9.3774648313,1.,-9.3774648313,0.7925025329,1.,1.,0.7925025329,1.,1.,-9.3774648313,-9.3774648313,1.,-8.9616656434,1.,-8.9616656434,1.,-9.3774648313,-9.3774648313,-9.3774648313,1.,1.,1.,-9.3774648313,1.,1.,1.,-9.3774648313,1.,1.,1.,-9.3774648313,1.,1.,1.,-9.3774648313,-2.1124620061,1.,1.,-2.1124620061,1.,1.,1.,-9.3774648313,1.,1.,1.,-8.9616656434,1.,1.,1.,-9.3774648313,0.7925025329,1.,1.,0.7925025329,0.7925025329,1.,1.,0.7925025329,0.7925025329,1.,1.,0.7925025329,0.7925025329,1.,1.,0.7925025329,-1.904964539,1.,1.,-1.904964539,0.7925025329,0.7921004061,1.,0.584602939,0.7925025329,1.,1.,0.584602939,0.7925025329,0.7921004061,1.,0.584602939,1.,1.,1.,1.,1.,1.,1.,1.,1.,1.,1.,1.,0.7925025329,1.,1.,0.7925025329,1.,1.,1.,-8.3379668615,0.7925025329,1.,1.,0.7925025329,1.,1.,1.,0.7921004061,1.,1.,1.,1.,1.,1.,1.,1.,1.,1.,1.,1.,0.7925025329,1.,0.5850050659,0.7925025329,1.,1.,0.5850050659,1.,1.,1.,0.5850050659,1.,1.,1.,0.5850050659,1.,0.7925025329,1.,0.5850050659,0.7925025329,1.,1.,1.,1.,1.,0.5850050659,0.5850050659,1.,0.7925025329,1.,1.,0.7925025329,1.,-0.4544929039,-0.869487838,1.,1.,1.,0.5850050659,1.,1.,1.,0.5850050659,1.,1.,0.5850050659,0.1700101317,1.,1.,1.,0.5850050659,1.,0.7923104056,-2.7353431233,-2.7353431233,0.7923104056,0.5846163498,1.,-8.9620811811,0.7924085576,1.,1.,-9.3774648313,1.,1.,1.,-8.547474963,1.,1.,1.,-8.547474963,1.,1.,-0.0394979697,-8.547474963,1.,1.,1.,-8.547474963,1.,1.,1.,-8.547474963,1.,1.,1.,-9.3774648313,1.,-9.1696726235,1.,1.,1.,1.,-7.5079769933,-7.5079769933,1.,1.,-9.3774648313,1.,1.,-9.3774648313,-9.3774648313,-9.3774648313,1.,-9.3774648313,1.,-9.3774648313,1.,1.,-9.3774648313,1.,1.,-3.1518439515,-3.9799392097,-3.9799392097,1.,-5.2256208798,1.,1.,1.;1.,-9.3774648313,-9.3774648313,-9.3774648313,1.,-9.3774648313,1.,-9.3774648313,1.,1.,-9.3774648313,-9.3774648313,-9.3774648313,-9.3774648313,1.,-9.3774648313,0.7925025329,1.,1.,0.7925025329,1.,1.,-9.3774648313,-9.3774648313,1.,-8.9616656434,1.,-8.9616656434,1.,-9.3774648313,-9.3774648313,-9.3774648313,1.,1.,1.,-9.3774648313,1.,1.,1.,-9.3774648313,1.,1.,1.,-9.3774648313,1.,1.,1.,-9.3774648313,-2.1124620061,1.,1.,-2.1124620061,1.,1.,1.,-9.3774648313,1.,1.,1.,-8.9616656434,1.,1.,1.,-9.3774648313,0.7925025329,1.,1.,0.7925025329,0.7925025329,1.,1.,0.7925025329,0.7925025329,1.,1.,0.7925025329,0.7925025329,1.,1.,0.7925025329,-1.904964539,1.,1.,-1.904964539,0.7925025329,0.7921004061,1.,0.584602939,0.7925025329,1.,1.,0.584602939,0.7925025329,0.7921004061,1.,0.584602939,1.,1.,1.,1.,1.,1.,1.,1.,1.,1.,1.,1.,0.7925025329,1.,1.,0.7925025329,1.,1.,1.,-8.3379668615,0.7925025329,1.,1.,0.7925025329,1.,1.,1.,0.7921004061,1.,1.,1.,1.,1.,1.,1.,1.,1.,1.,1.,1.,0.7925025329,1.,0.5850050659,0.7925025329,1.,1.,0.5850050659,1.,1.,1.,0.5850050659,1.,1.,1.,0.5850050659,1.,0.7925025329,1.,0.5850050659,0.7925025329,1.,1.,1.,1.,1.,0.5850050659,0.5850050659,1.,0.7925025329,1.,1.,0.7925025329,1.,-0.4544929039,-0.869487838,1.,1.,1.,0.5850050659,1.,1.,1.,0.5850050659,1.,1.,0.5850050659,0.1700101317,1.,1.,1.,0.5850050659,1.,0.7923104056,-2.7353431233,-2.7353431233,0.7923104056,0.5846163498,1.,-8.9620811811,0.7924085576,1.,1.,-9.3774648313,1.,1.,1.,-8.547474963,1.,1.,1.,-8.547474963,1.,1.,-0.0394979697,-8.547474963,1.,1.,1.,-8.547474963,1.,1.,1.,-8.547474963,1.,1.,1.,-9.3774648313,1.,-9.1696726235,1.,1.,1.,1.,-7.5079769933,-7.5079769933,1.,1.,-9.3774648313,1.,1.,-9.3774648313,-9.3774648313,-9.3774648313,1.,-9.3774648313,1.,-9.3774648313,1.,1.,-9.3774648313,1.,1.,-3.1518439515,-3.9799392097,-3.9799392097,1.,-5.2256208798,1.,1.,1.;1.,-9.3774648313,-9.3774648313,-9.3774648313,1.,-9.3774648313,1.,-9.3774648313,1.,1.,-9.3774648313,-9.3774648313,-9.3774648313,-9.3774648313,1.,-9.3774648313,0.7925025329,1.,1.,0.7925025329,1.,1.,-9.3774648313,-9.3774648313,1.,-8.9616656434,1.,-8.9616656434,1.,-9.3774648313,-9.3774648313,-9.3774648313,1.,1.,1.,-9.3774648313,1.,1.,1.,-9.3774648313,1.,1.,1.,-9.3774648313,1.,1.,1.,-9.3774648313,-2.1124620061,1.,1.,-2.1124620061,1.,1.,1.,-9.3774648313,1.,1.,1.,-8.9616656434,1.,1.,1.,-9.3774648313,0.7925025329,1.,1.,0.7925025329,0.7925025329,1.,1.,0.7925025329,0.7925025329,1.,1.,0.7925025329,0.7925025329,1.,1.,0.7925025329,-1.904964539,1.,1.,-1.904964539,0.7925025329,0.7921004061,1.,0.584602939,0.7925025329,1.,1.,0.584602939,0.7925025329,0.7921004061,1.,0.584602939,1.,1.,1.,1.,1.,1.,1.,1.,1.,1.,1.,1.,0.7925025329,1.,1.,0.7925025329,1.,1.,1.,-8.3379668615,0.7925025329,1.,1.,0.7925025329,1.,1.,1.,0.7921004061,1.,1.,1.,1.,1.,1.,1.,1.,1.,1.,1.,1.,0.7925025329,1.,0.5850050659,0.7925025329,1.,1.,0.5850050659,1.,1.,1.,0.5850050659,1.,1.,1.,0.5850050659,1.,0.7925025329,1.,0.5850050659,0.7925025329,1.,1.,1.,1.,1.,0.5850050659,0.5850050659,1.,0.7925025329,1.,1.,0.7925025329,1.,-0.4544929039,-0.869487838,1.,1.,1.,0.5850050659,1.,1.,1.,0.5850050659,1.,1.,0.5850050659,0.1700101317,1.,1.,1.,0.5850050659,1.,0.7923104056,-2.7353431233,-2.7353431233,0.7923104056,0.5846163498,1.,-8.9620811811,0.7924085576,1.,1.,-9.3774648313,1.,1.,1.,-8.547474963,1.,1.,1.,-8.547474963,1.,1.,-0.0394979697,-8.547474963,1.,1.,1.,-8.547474963,1.,1.,1.,-8.547474963,1.,1.,1.,-9.3774648313,1.,-9.1696726235,1.,1.,1.,1.,-7.5079769933,-7.5079769933,1.,1.,-9.3774648313,1.,1.,-9.3774648313,-9.3774648313,-9.3774648313,1.,-9.3774648313,1.,-9.3774648313,1.,1.,-9.3774648313,1.,1.,-3.1518439515,-3.9799392097,-3.9799392097,1.,-5.2256208798,1.,1.,1.;1.,-9.3774648313,-9.3774648313,-9.3774648313,1.,-9.3774648313,1.,-9.3774648313,1.,1.,-9.3774648313,-9.3774648313,-9.3774648313,-9.3774648313,1.,-9.3774648313,0.7925025329,1.,1.,0.7925025329,1.,1.,-9.3774648313,-9.3774648313,1.,-8.9616656434,1.,-8.9616656434,1.,-9.3774648313,-9.3774648313,-9.3774648313,1.,1.,1.,-9.3774648313,1.,1.,1.,-9.3774648313,1.,1.,1.,-9.3774648313,1.,1.,1.,-9.3774648313,-2.1124620061,1.,1.,-2.1124620061,1.,1.,1.,-9.3774648313,1.,1.,1.,-8.9616656434,1.,1.,1.,-9.3774648313,0.7925025329,1.,1.,0.7925025329,0.7925025329,1.,1.,0.7925025329,0.7925025329,1.,1.,0.7925025329,0.7925025329,1.,1.,0.7925025329,-1.904964539,1.,1.,-1.904964539,0.7925025329,0.7921004061,1.,0.584602939,0.7925025329,1.,1.,0.584602939,0.7925025329,0.7921004061,1.,0.584602939,1.,1.,1.,1.,1.,1.,1.,1.,1.,1.,1.,1.,0.7925025329,1.,1.,0.7925025329,1.,1.,1.,-8.3379668615,0.7925025329,1.,1.,0.7925025329,1.,1.,1.,0.7921004061,1.,1.,1.,1.,1.,1.,1.,1.,1.,1.,1.,1.,0.7925025329,1.,0.5850050659,0.7925025329,1.,1.,0.5850050659,1.,1.,1.,0.5850050659,1.,1.,1.,0.5850050659,1.,0.7925025329,1.,0.5850050659,0.7925025329,1.,1.,1.,1.,1.,0.5850050659,0.5850050659,1.,0.7925025329,1.,1.,0.7925025329,1.,-0.4544929039,-0.869487838,1.,1.,1.,0.5850050659,1.,1.,1.,0.5850050659,1.,1.,0.5850050659,0.1700101317,1.,1.,1.,0.5850050659,1.,0.7923104056,-2.7353431233,-2.7353431233,0.7923104056,0.5846163498,1.,-8.9620811811,0.7924085576,1.,1.,-9.3774648313,1.,1.,1.,-8.547474963,1.,1.,1.,-8.547474963,1.,1.,-0.0394979697,-8.547474963,1.,1.,1.,-8.547474963,1.,1.,1.,-8.547474963,1.,1.,1.,-9.3774648313,1.,-9.1696726235,1.,1.,1.,1.,-7.5079769933,-7.5079769933,1.,1.,-9.3774648313,1.,1.,-9.3774648313,-9.3774648313,-9.3774648313,1.,-9.3774648313,1.,-9.3774648313,1.,1.,-9.3774648313,1.,1.,-3.1518439515,-3.9799392097,-3.9799392097,1.,-5.2256208798,1.,1.,1.;1.,-9.3774648313,-9.3774648313,-9.3774648313,1.,-9.3774648313,1.,-9.3774648313,1.,1.,-9.3774648313,-9.3774648313,-9.3774648313,-9.3774648313,1.,-9.3774648313,0.7925025329,1.,1.,0.7925025329,1.,1.,-9.3774648313,-9.3774648313,1.,-8.9616656434,1.,-8.9616656434,1.,-9.3774648313,-9.3774648313,-9.3774648313,1.,1.,1.,-9.3774648313,1.,1.,1.,-9.3774648313,1.,1.,1.,-9.3774648313,1.,1.,1.,-9.3774648313,-2.1124620061,1.,1.,-2.1124620061,1.,1.,1.,-9.3774648313,1.,1.,1.,-8.9616656434,1.,1.,1.,-9.3774648313,0.7925025329,1.,1.,0.7925025329,0.7925025329,1.,1.,0.7925025329,0.7925025329,1.,1.,0.7925025329,0.7925025329,1.,1.,0.7925025329,-1.904964539,1.,1.,-1.904964539,0.7925025329,0.7921004061,1.,0.584602939,0.7925025329,1.,1.,0.584602939,0.7925025329,0.7921004061,1.,0.584602939,1.,1.,1.,1.,1.,1.,1.,1.,1.,1.,1.,1.,0.7925025329,1.,1.,0.7925025329,1.,1.,1.,-8.3379668615,0.7925025329,1.,1.,0.7925025329,1.,1.,1.,0.7921004061,1.,1.,1.,1.,1.,1.,1.,1.,1.,1.,1.,1.,0.7925025329,1.,0.5850050659,0.7925025329,1.,1.,0.5850050659,1.,1.,1.,0.5850050659,1.,1.,1.,0.5850050659,1.,0.7925025329,1.,0.5850050659,0.7925025329,1.,1.,1.,1.,1.,0.5850050659,0.5850050659,1.,0.7925025329,1.,1.,0.7925025329,1.,-0.4544929039,-0.869487838,1.,1.,1.,0.5850050659,1.,1.,1.,0.5850050659,1.,1.,0.5850050659,0.1700101317,1.,1.,1.,0.5850050659,1.,0.7923104056,-2.7353431233,-2.7353431233,0.7923104056,0.5846163498,1.,-8.9620811811,0.7924085576,1.,1.,-9.3774648313,1.,1.,1.,-8.547474963,1.,1.,1.,-8.547474963,1.,1.,-0.0394979697,-8.547474963,1.,1.,1.,-8.547474963,1.,1.,1.,-8.547474963,1.,1.,1.,-9.3774648313,1.,-9.1696726235,1.,1.,1.,1.,-7.5079769933,-7.5079769933,1.,1.,-9.3774648313,1.,1.,-9.3774648313,-9.3774648313,-9.3774648313,1.,-9.3774648313,1.,-9.3774648313,1.,1.,-9.3774648313,1.,1.,-3.1518439515,-3.9799392097,-3.9799392097,1.,-5.2256208798,1.,1.,1.;1.,-9.3774648313,-9.3774648313,-9.3774648313,1.,-9.3774648313,1.,-9.3774648313,1.,1.,-9.3774648313,-9.3774648313,-9.3774648313,-9.3774648313,1.,-9.3774648313,0.7925025329,1.,1.,0.7925025329,1.,1.,-9.3774648313,-9.3774648313,1.,-8.9616656434,1.,-8.9616656434,1.,-9.3774648313,-9.3774648313,-9.3774648313,1.,1.,1.,-9.3774648313,1.,1.,1.,-9.3774648313,1.,1.,1.,-9.3774648313,1.,1.,1.,-9.3774648313,-2.1124620061,1.,1.,-2.1124620061,1.,1.,1.,-9.3774648313,1.,1.,1.,-8.9616656434,1.,1.,1.,-9.3774648313,0.7925025329,1.,1.,0.7925025329,0.7925025329,1.,1.,0.7925025329,0.7925025329,1.,1.,0.7925025329,0.7925025329,1.,1.,0.7925025329,-1.904964539,1.,1.,-1.904964539,0.7925025329,0.7921004061,1.,0.584602939,0.7925025329,1.,1.,0.584602939,0.7925025329,0.7921004061,1.,0.584602939,1.,1.,1.,1.,1.,1.,1.,1.,1.,1.,1.,1.,0.7925025329,1.,1.,0.7925025329,1.,1.,1.,-8.3379668615,0.7925025329,1.,1.,0.7925025329,1.,1.,1.,0.7921004061,1.,1.,1.,1.,1.,1.,1.,1.,1.,1.,1.,1.,0.7925025329,1.,0.5850050659,0.7925025329,1.,1.,0.5850050659,1.,1.,1.,0.5850050659,1.,1.,1.,0.5850050659,1.,0.7925025329,1.,0.5850050659,0.7925025329,1.,1.,1.,1.,1.,0.5850050659,0.5850050659,1.,0.7925025329,1.,1.,0.7925025329,1.,-0.4544929039,-0.869487838,1.,1.,1.,0.5850050659,1.,1.,1.,0.5850050659,1.,1.,0.5850050659,0.1700101317,1.,1.,1.,0.5850050659,1.,0.7923104056,-2.7353431233,-2.7353431233,0.7923104056,0.5846163498,1.,-8.9620811811,0.7924085576,1.,1.,-9.3774648313,1.,1.,1.,-8.547474963,1.,1.,1.,-8.547474963,1.,1.,-0.0394979697,-8.547474963,1.,1.,1.,-8.547474963,1.,1.,1.,-8.547474963,1.,1.,1.,-9.3774648313,1.,-9.1696726235,1.,1.,1.,1.,-7.5079769933,-7.5079769933,1.,1.,-9.3774648313,1.,1.,-9.3774648313,-9.3774648313,-9.3774648313,1.,-9.3774648313,1.,-9.3774648313,1.,1.,-9.3774648313,1.,1.,-3.1518439515,-3.9799392097,-3.9799392097,1.,-5.2256208798,1.,1.,1.;1.,-9.3774648313,-9.3774648313,-9.3774648313,1.,-9.3774648313,1.,-9.3774648313,1.,1.,-9.3774648313,-9.3774648313,-9.3774648313,-9.3774648313,1.,-9.3774648313,0.7925025329,1.,1.,0.7925025329,1.,1.,-9.3774648313,-9.3774648313,1.,-8.9616656434,1.,-8.9616656434,1.,-9.3774648313,-9.3774648313,-9.3774648313,1.,1.,1.,-9.3774648313,1.,1.,1.,-9.3774648313,1.,1.,1.,-9.3774648313,1.,1.,1.,-9.3774648313,-2.1124620061,1.,1.,-2.1124620061,1.,1.,1.,-9.3774648313,1.,1.,1.,-8.9616656434,1.,1.,1.,-9.3774648313,0.7925025329,1.,1.,0.7925025329,0.7925025329,1.,1.,0.7925025329,0.7925025329,1.,1.,0.7925025329,0.7925025329,1.,1.,0.7925025329,-1.904964539,1.,1.,-1.904964539,0.7925025329,0.7921004061,1.,0.584602939,0.7925025329,1.,1.,0.584602939,0.7925025329,0.7921004061,1.,0.584602939,1.,1.,1.,1.,1.,1.,1.,1.,1.,1.,1.,1.,0.7925025329,1.,1.,0.7925025329,1.,1.,1.,-8.3379668615,0.7925025329,1.,1.,0.7925025329,1.,1.,1.,0.7921004061,1.,1.,1.,1.,1.,1.,1.,1.,1.,1.,1.,1.,0.7925025329,1.,0.5850050659,0.7925025329,1.,1.,0.5850050659,1.,1.,1.,0.5850050659,1.,1.,1.,0.5850050659,1.,0.7925025329,1.,0.5850050659,0.7925025329,1.,1.,1.,1.,1.,0.5850050659,0.5850050659,1.,0.7925025329,1.,1.,0.7925025329,1.,-0.4544929039,-0.869487838,1.,1.,1.,0.5850050659,1.,1.,1.,0.5850050659,1.,1.,0.5850050659,0.1700101317,1.,1.,1.,0.5850050659,1.,0.7923104056,-2.7353431233,-2.7353431233,0.7923104056,0.5846163498,1.,-8.9620811811,0.7924085576,1.,1.,-9.3774648313,1.,1.,1.,-8.547474963,1.,1.,1.,-8.547474963,1.,1.,-0.0394979697,-8.547474963,1.,1.,1.,-8.547474963,1.,1.,1.,-8.547474963,1.,1.,1.,-9.3774648313,1.,-9.1696726235,1.,1.,1.,1.,-7.5079769933,-7.5079769933,1.,1.,-9.3774648313,1.,1.,-9.3774648313,-9.3774648313,-9.3774648313,1.,-9.3774648313,1.,-9.3774648313,1.,1.,-9.3774648313,1.,1.,-3.1518439515,-3.9799392097,-3.9799392097,1.,-5.2256208798,1.,1.,1.;1.,-9.3774648313,-9.3774648313,-9.3774648313,1.,-9.3774648313,1.,-9.3774648313,1.,1.,-9.3774648313,-9.3774648313,-9.3774648313,-9.3774648313,1.,-9.3774648313,0.7925025329,1.,1.,0.7925025329,1.,1.,-9.3774648313,-9.3774648313,1.,-8.9616656434,1.,-8.9616656434,1.,-9.3774648313,-9.3774648313,-9.3774648313,1.,1.,1.,-9.3774648313,1.,1.,1.,-9.3774648313,1.,1.,1.,-9.3774648313,1.,1.,1.,-9.3774648313,-2.1124620061,1.,1.,-2.1124620061,1.,1.,1.,-9.3774648313,1.,1.,1.,-8.9616656434,1.,1.,1.,-9.3774648313,0.7925025329,1.,1.,0.7925025329,0.7925025329,1.,1.,0.7925025329,0.7925025329,1.,1.,0.7925025329,0.7925025329,1.,1.,0.7925025329,-1.904964539,1.,1.,-1.904964539,0.7925025329,0.7921004061,1.,0.584602939,0.7925025329,1.,1.,0.584602939,0.7925025329,0.7921004061,1.,0.584602939,1.,1.,1.,1.,1.,1.,1.,1.,1.,1.,1.,1.,0.7925025329,1.,1.,0.7925025329,1.,1.,1.,-8.3379668615,0.7925025329,1.,1.,0.7925025329,1.,1.,1.,0.7921004061,1.,1.,1.,1.,1.,1.,1.,1.,1.,1.,1.,1.,0.7925025329,1.,0.5850050659,0.7925025329,1.,1.,0.5850050659,1.,1.,1.,0.5850050659,1.,1.,1.,0.5850050659,1.,0.7925025329,1.,0.5850050659,0.7925025329,1.,1.,1.,1.,1.,0.5850050659,0.5850050659,1.,0.7925025329,1.,1.,0.7925025329,1.,-0.4544929039,-0.869487838,1.,1.,1.,0.5850050659,1.,1.,1.,0.5850050659,1.,1.,0.5850050659,0.1700101317,1.,1.,1.,0.5850050659,1.,0.7923104056,-2.7353431233,-2.7353431233,0.7923104056,0.5846163498,1.,-8.9620811811,0.7924085576,1.,1.,-9.3774648313,1.,1.,1.,-8.547474963,1.,1.,1.,-8.547474963,1.,1.,-0.0394979697,-8.547474963,1.,1.,1.,-8.547474963,1.,1.,1.,-8.547474963,1.,1.,1.,-9.3774648313,1.,-9.1696726235,1.,1.,1.,1.,-7.5079769933,-7.5079769933,1.,1.,-9.3774648313,1.,1.,-9.3774648313,-9.3774648313,-9.3774648313,1.,-9.3774648313,1.,-9.3774648313,1.,1.,-9.3774648313,1.,1.,-3.1518439515,-3.9799392097,-3.9799392097,1.,-5.2256208798,1.,1.,1.;1.,-9.3774648313,-9.3774648313,-9.3774648313,1.,-9.3774648313,1.,-9.3774648313,1.,1.,-9.3774648313,-9.3774648313,-9.3774648313,-9.3774648313,1.,-9.3774648313,0.7925025329,1.,1.,0.7925025329,1.,1.,-9.3774648313,-9.3774648313,1.,-8.9616656434,1.,-8.9616656434,1.,-9.3774648313,-9.3774648313,-9.3774648313,1.,1.,1.,-9.3774648313,1.,1.,1.,-9.3774648313,1.,1.,1.,-9.3774648313,1.,1.,1.,-9.3774648313,-2.1124620061,1.,1.,-2.1124620061,1.,1.,1.,-9.3774648313,1.,1.,1.,-8.9616656434,1.,1.,1.,-9.3774648313,0.7925025329,1.,1.,0.7925025329,0.7925025329,1.,1.,0.7925025329,0.7925025329,1.,1.,0.7925025329,0.7925025329,1.,1.,0.7925025329,-1.904964539,1.,1.,-1.904964539,0.7925025329,0.7921004061,1.,0.584602939,0.7925025329,1.,1.,0.584602939,0.7925025329,0.7921004061,1.,0.584602939,1.,1.,1.,1.,1.,1.,1.,1.,1.,1.,1.,1.,0.7925025329,1.,1.,0.7925025329,1.,1.,1.,-8.3379668615,0.7925025329,1.,1.,0.7925025329,1.,1.,1.,0.7921004061,1.,1.,1.,1.,1.,1.,1.,1.,1.,1.,1.,1.,0.7925025329,1.,0.5850050659,0.7925025329,1.,1.,0.5850050659,1.,1.,1.,0.5850050659,1.,1.,1.,0.5850050659,1.,0.7925025329,1.,0.5850050659,0.7925025329,1.,1.,1.,1.,1.,0.5850050659,0.5850050659,1.,0.7925025329,1.,1.,0.7925025329,1.,-0.4544929039,-0.869487838,1.,1.,1.,0.5850050659,1.,1.,1.,0.5850050659,1.,1.,0.5850050659,0.1700101317,1.,1.,1.,0.5850050659,1.,0.7923104056,-2.7353431233,-2.7353431233,0.7923104056,0.5846163498,1.,-8.9620811811,0.7924085576,1.,1.,-9.3774648313,1.,1.,1.,-8.547474963,1.,1.,1.,-8.547474963,1.,1.,-0.0394979697,-8.547474963,1.,1.,1.,-8.547474963,1.,1.,1.,-8.547474963,1.,1.,1.,-9.3774648313,1.,-9.1696726235,1.,1.,1.,1.,-7.5079769933,-7.5079769933,1.,1.,-9.3774648313,1.,1.,-9.3774648313,-9.3774648313,-9.3774648313,1.,-9.3774648313,1.,-9.3774648313,1.,1.,-9.3774648313,1.,1.,-3.1518439515,-3.9799392097,-3.9799392097,1.,-5.2256208798,1.,1.,1.;1.,-9.3774648313,-9.3774648313,-9.3774648313,1.,-9.3774648313,1.,-9.3774648313,1.,1.,-9.3774648313,-9.3774648313,-9.3774648313,-9.3774648313,1.,-9.3774648313,0.7925025329,1.,1.,0.7925025329,1.,1.,-9.3774648313,-9.3774648313,1.,-8.9616656434,1.,-8.9616656434,1.,-9.3774648313,-9.3774648313,-9.3774648313,1.,1.,1.,-9.3774648313,1.,1.,1.,-9.3774648313,1.,1.,1.,-9.3774648313,1.,1.,1.,-9.3774648313,-2.1124620061,1.,1.,-2.1124620061,1.,1.,1.,-9.3774648313,1.,1.,1.,-8.9616656434,1.,1.,1.,-9.3774648313,0.7925025329,1.,1.,0.7925025329,0.7925025329,1.,1.,0.7925025329,0.7925025329,1.,1.,0.7925025329,0.7925025329,1.,1.,0.7925025329,-1.904964539,1.,1.,-1.904964539,0.7925025329,0.7921004061,1.,0.584602939,0.7925025329,1.,1.,0.584602939,0.7925025329,0.7921004061,1.,0.584602939,1.,1.,1.,1.,1.,1.,1.,1.,1.,1.,1.,1.,0.7925025329,1.,1.,0.7925025329,1.,1.,1.,-8.3379668615,0.7925025329,1.,1.,0.7925025329,1.,1.,1.,0.7921004061,1.,1.,1.,1.,1.,1.,1.,1.,1.,1.,1.,1.,0.7925025329,1.,0.5850050659,0.7925025329,1.,1.,0.5850050659,1.,1.,1.,0.5850050659,1.,1.,1.,0.5850050659,1.,0.7925025329,1.,0.5850050659,0.7925025329,1.,1.,1.,1.,1.,0.5850050659,0.5850050659,1.,0.7925025329,1.,1.,0.7925025329,1.,-0.4544929039,-0.869487838,1.,1.,1.,0.5850050659,1.,1.,1.,0.5850050659,1.,1.,0.5850050659,0.1700101317,1.,1.,1.,0.5850050659,1.,0.7923104056,-2.7353431233,-2.7353431233,0.7923104056,0.5846163498,1.,-8.9620811811,0.7924085576,1.,1.,-9.3774648313,1.,1.,1.,-8.547474963,1.,1.,1.,-8.547474963,1.,1.,-0.0394979697,-8.547474963,1.,1.,1.,-8.547474963,1.,1.,1.,-8.547474963,1.,1.,1.,-9.3774648313,1.,-9.1696726235,1.,1.,1.,1.,-7.5079769933,-7.5079769933,1.,1.,-9.3774648313,1.,1.,-9.3774648313,-9.3774648313,-9.3774648313,1.,-9.3774648313,1.,-9.3774648313,1.,1.,-9.3774648313,1.,1.,-3.1518439515,-3.9799392097,-3.9799392097,1.,-5.2256208798,1.,1.,1.;1.,-9.3774648313,-9.3774648313,-9.3774648313,1.,-9.3774648313,1.,-9.3774648313,1.,1.,-9.3774648313,-9.3774648313,-9.3774648313,-9.3774648313,1.,-9.3774648313,0.7925025329,1.,1.,0.7925025329,1.,1.,-9.3774648313,-9.3774648313,1.,-8.9616656434,1.,-8.9616656434,1.,-9.3774648313,-9.3774648313,-9.3774648313,1.,1.,1.,-9.3774648313,1.,1.,1.,-9.3774648313,1.,1.,1.,-9.3774648313,1.,1.,1.,-9.3774648313,-2.1124620061,1.,1.,-2.1124620061,1.,1.,1.,-9.3774648313,1.,1.,1.,-8.9616656434,1.,1.,1.,-9.3774648313,0.7925025329,1.,1.,0.7925025329,0.7925025329,1.,1.,0.7925025329,0.7925025329,1.,1.,0.7925025329,0.7925025329,1.,1.,0.7925025329,-1.904964539,1.,1.,-1.904964539,0.7925025329,0.7921004061,1.,0.584602939,0.7925025329,1.,1.,0.584602939,0.7925025329,0.7921004061,1.,0.584602939,1.,1.,1.,1.,1.,1.,1.,1.,1.,1.,1.,1.,0.7925025329,1.,1.,0.7925025329,1.,1.,1.,-8.3379668615,0.7925025329,1.,1.,0.7925025329,1.,1.,1.,0.7921004061,1.,1.,1.,1.,1.,1.,1.,1.,1.,1.,1.,1.,0.7925025329,1.,0.5850050659,0.7925025329,1.,1.,0.5850050659,1.,1.,1.,0.5850050659,1.,1.,1.,0.5850050659,1.,0.7925025329,1.,0.5850050659,0.7925025329,1.,1.,1.,1.,1.,0.5850050659,0.5850050659,1.,0.7925025329,1.,1.,0.7925025329,1.,-0.4544929039,-0.869487838,1.,1.,1.,0.5850050659,1.,1.,1.,0.5850050659,1.,1.,0.5850050659,0.1700101317,1.,1.,1.,0.5850050659,1.,0.7923104056,-2.7353431233,-2.7353431233,0.7923104056,0.5846163498,1.,-8.9620811811,0.7924085576,1.,1.,-9.3774648313,1.,1.,1.,-8.547474963,1.,1.,1.,-8.547474963,1.,1.,-0.0394979697,-8.547474963,1.,1.,1.,-8.547474963,1.,1.,1.,-8.547474963,1.,1.,1.,-9.3774648313,1.,-9.1696726235,1.,1.,1.,1.,-7.5079769933,-7.5079769933,1.,1.,-9.3774648313,1.,1.,-9.3774648313,-9.3774648313,-9.3774648313,1.,-9.3774648313,1.,-9.3774648313,1.,1.,-9.3774648313,1.,1.,-3.1518439515,-3.9799392097,-3.9799392097,1.,-5.2256208798,1.,1.,1.;1.,-9.3774648313,-9.3774648313,-9.3774648313,1.,-9.3774648313,1.,-9.3774648313,1.,1.,-9.3774648313,-9.3774648313,-9.3774648313,-9.3774648313,1.,-9.3774648313,0.7925025329,1.,1.,0.7925025329,1.,1.,-9.3774648313,-9.3774648313,1.,-8.9616656434,1.,-8.9616656434,1.,-9.3774648313,-9.3774648313,-9.3774648313,1.,1.,1.,-9.3774648313,1.,1.,1.,-9.3774648313,1.,1.,1.,-9.3774648313,1.,1.,1.,-9.3774648313,-2.1124620061,1.,1.,-2.1124620061,1.,1.,1.,-9.3774648313,1.,1.,1.,-8.9616656434,1.,1.,1.,-9.3774648313,0.7925025329,1.,1.,0.7925025329,0.7925025329,1.,1.,0.7925025329,0.7925025329,1.,1.,0.7925025329,0.7925025329,1.,1.,0.7925025329,-1.904964539,1.,1.,-1.904964539,0.7925025329,0.7921004061,1.,0.584602939,0.7925025329,1.,1.,0.584602939,0.7925025329,0.7921004061,1.,0.584602939,1.,1.,1.,1.,1.,1.,1.,1.,1.,1.,1.,1.,0.7925025329,1.,1.,0.7925025329,1.,1.,1.,-8.3379668615,0.7925025329,1.,1.,0.7925025329,1.,1.,1.,0.7921004061,1.,1.,1.,1.,1.,1.,1.,1.,1.,1.,1.,1.,0.7925025329,1.,0.5850050659,0.7925025329,1.,1.,0.5850050659,1.,1.,1.,0.5850050659,1.,1.,1.,0.5850050659,1.,0.7925025329,1.,0.5850050659,0.7925025329,1.,1.,1.,1.,1.,0.5850050659,0.5850050659,1.,0.7925025329,1.,1.,0.7925025329,1.,-0.4544929039,-0.869487838,1.,1.,1.,0.5850050659,1.,1.,1.,0.5850050659,1.,1.,0.5850050659,0.1700101317,1.,1.,1.,0.5850050659,1.,0.7923104056,-2.7353431233,-2.7353431233,0.7923104056,0.5846163498,1.,-8.9620811811,0.7924085576,1.,1.,-9.3774648313,1.,1.,1.,-8.547474963,1.,1.,1.,-8.547474963,1.,1.,-0.0394979697,-8.547474963,1.,1.,1.,-8.547474963,1.,1.,1.,-8.547474963,1.,1.,1.,-9.3774648313,1.,-9.1696726235,1.,1.,1.,1.,-7.5079769933,-7.5079769933,1.,1.,-9.3774648313,1.,1.,-9.3774648313,-9.3774648313,-9.3774648313,1.,-9.3774648313,1.,-9.3774648313,1.,1.,-9.3774648313,1.,1.,-3.1518439515,-3.9799392097,-3.9799392097,1.,-5.2256208798,1.,1.,1.;1.,-9.3774648313,-9.3774648313,-9.3774648313,1.,-9.3774648313,1.,-9.3774648313,1.,1.,-9.3774648313,-9.3774648313,-9.3774648313,-9.3774648313,1.,-9.3774648313,0.7925025329,1.,1.,0.7925025329,1.,1.,-9.3774648313,-9.3774648313,1.,-8.9616656434,1.,-8.9616656434,1.,-9.3774648313,-9.3774648313,-9.3774648313,1.,1.,1.,-9.3774648313,1.,1.,1.,-9.3774648313,1.,1.,1.,-9.3774648313,1.,1.,1.,-9.3774648313,-2.1124620061,1.,1.,-2.1124620061,1.,1.,1.,-9.3774648313,1.,1.,1.,-8.9616656434,1.,1.,1.,-9.3774648313,0.7925025329,1.,1.,0.7925025329,0.7925025329,1.,1.,0.7925025329,0.7925025329,1.,1.,0.7925025329,0.7925025329,1.,1.,0.7925025329,-1.904964539,1.,1.,-1.904964539,0.7925025329,0.7921004061,1.,0.584602939,0.7925025329,1.,1.,0.584602939,0.7925025329,0.7921004061,1.,0.584602939,1.,1.,1.,1.,1.,1.,1.,1.,1.,1.,1.,1.,0.7925025329,1.,1.,0.7925025329,1.,1.,1.,-8.3379668615,0.7925025329,1.,1.,0.7925025329,1.,1.,1.,0.7921004061,1.,1.,1.,1.,1.,1.,1.,1.,1.,1.,1.,1.,0.7925025329,1.,0.5850050659,0.7925025329,1.,1.,0.5850050659,1.,1.,1.,0.5850050659,1.,1.,1.,0.5850050659,1.,0.7925025329,1.,0.5850050659,0.7925025329,1.,1.,1.,1.,1.,0.5850050659,0.5850050659,1.,0.7925025329,1.,1.,0.7925025329,1.,-0.4544929039,-0.869487838,1.,1.,1.,0.5850050659,1.,1.,1.,0.5850050659,1.,1.,0.5850050659,0.1700101317,1.,1.,1.,0.5850050659,1.,0.7923104056,-2.7353431233,-2.7353431233,0.7923104056,0.5846163498,1.,-8.9620811811,0.7924085576,1.,1.,-9.3774648313,1.,1.,1.,-8.547474963,1.,1.,1.,-8.547474963,1.,1.,-0.0394979697,-8.547474963,1.,1.,1.,-8.547474963,1.,1.,1.,-8.547474963,1.,1.,1.,-9.3774648313,1.,-9.1696726235,1.,1.,1.,1.,-7.5079769933,-7.5079769933,1.,1.,-9.3774648313,1.,1.,-9.3774648313,-9.3774648313,-9.3774648313,1.,-9.3774648313,1.,-9.3774648313,1.,1.,-9.3774648313,1.,1.,-3.1518439515,-3.9799392097,-3.9799392097,1.,-5.2256208798,1.,1.,1.;1.,-9.3774648313,-9.3774648313,-9.3774648313,1.,-9.3774648313,1.,-9.3774648313,1.,1.,-9.3774648313,-9.3774648313,-9.3774648313,-9.3774648313,1.,-9.3774648313,0.7925025329,1.,1.,0.7925025329,1.,1.,-9.3774648313,-9.3774648313,1.,-8.9616656434,1.,-8.9616656434,1.,-9.3774648313,-9.3774648313,-9.3774648313,1.,1.,1.,-9.3774648313,1.,1.,1.,-9.3774648313,1.,1.,1.,-9.3774648313,1.,1.,1.,-9.3774648313,-2.1124620061,1.,1.,-2.1124620061,1.,1.,1.,-9.3774648313,1.,1.,1.,-8.9616656434,1.,1.,1.,-9.3774648313,0.7925025329,1.,1.,0.7925025329,0.7925025329,1.,1.,0.7925025329,0.7925025329,1.,1.,0.7925025329,0.7925025329,1.,1.,0.7925025329,-1.904964539,1.,1.,-1.904964539,0.7925025329,0.7921004061,1.,0.584602939,0.7925025329,1.,1.,0.584602939,0.7925025329,0.7921004061,1.,0.584602939,1.,1.,1.,1.,1.,1.,1.,1.,1.,1.,1.,1.,0.7925025329,1.,1.,0.7925025329,1.,1.,1.,-8.3379668615,0.7925025329,1.,1.,0.7925025329,1.,1.,1.,0.7921004061,1.,1.,1.,1.,1.,1.,1.,1.,1.,1.,1.,1.,0.7925025329,1.,0.5850050659,0.7925025329,1.,1.,0.5850050659,1.,1.,1.,0.5850050659,1.,1.,1.,0.5850050659,1.,0.7925025329,1.,0.5850050659,0.7925025329,1.,1.,1.,1.,1.,0.5850050659,0.5850050659,1.,0.7925025329,1.,1.,0.7925025329,1.,-0.4544929039,-0.869487838,1.,1.,1.,0.5850050659,1.,1.,1.,0.5850050659,1.,1.,0.5850050659,0.1700101317,1.,1.,1.,0.5850050659,1.,0.7923104056,-2.7353431233,-2.7353431233,0.7923104056,0.5846163498,1.,-8.9620811811,0.7924085576,1.,1.,-9.3774648313,1.,1.,1.,-8.547474963,1.,1.,1.,-8.547474963,1.,1.,-0.0394979697,-8.547474963,1.,1.,1.,-8.547474963,1.,1.,1.,-8.547474963,1.,1.,1.,-9.3774648313,1.,-9.1696726235,1.,1.,1.,1.,-7.5079769933,-7.5079769933,1.,1.,-9.3774648313,1.,1.,-9.3774648313,-9.3774648313,-9.3774648313,1.,-9.3774648313,1.,-9.3774648313,1.,1.,-9.3774648313,1.,1.,-3.1518439515,-3.9799392097,-3.9799392097,1.,-5.2256208798,1.,1.,1.;1.,-9.3774648313,-9.3774648313,-9.3774648313,1.,-9.3774648313,1.,-9.3774648313,1.,1.,-9.3774648313,-9.3774648313,-9.3774648313,-9.3774648313,1.,-9.3774648313,0.7925025329,1.,1.,0.7925025329,1.,1.,-9.3774648313,-9.3774648313,1.,-8.9616656434,1.,-8.9616656434,1.,-9.3774648313,-9.3774648313,-9.3774648313,1.,1.,1.,-9.3774648313,1.,1.,1.,-9.3774648313,1.,1.,1.,-9.3774648313,1.,1.,1.,-9.3774648313,-2.1124620061,1.,1.,-2.1124620061,1.,1.,1.,-9.3774648313,1.,1.,1.,-8.9616656434,1.,1.,1.,-9.3774648313,0.7925025329,1.,1.,0.7925025329,0.7925025329,1.,1.,0.7925025329,0.7925025329,1.,1.,0.7925025329,0.7925025329,1.,1.,0.7925025329,-1.904964539,1.,1.,-1.904964539,0.7925025329,0.7921004061,1.,0.584602939,0.7925025329,1.,1.,0.584602939,0.7925025329,0.7921004061,1.,0.584602939,1.,1.,1.,1.,1.,1.,1.,1.,1.,1.,1.,1.,0.7925025329,1.,1.,0.7925025329,1.,1.,1.,-8.3379668615,0.7925025329,1.,1.,0.7925025329,1.,1.,1.,0.7921004061,1.,1.,1.,1.,1.,1.,1.,1.,1.,1.,1.,1.,0.7925025329,1.,0.5850050659,0.7925025329,1.,1.,0.5850050659,1.,1.,1.,0.5850050659,1.,1.,1.,0.5850050659,1.,0.7925025329,1.,0.5850050659,0.7925025329,1.,1.,1.,1.,1.,0.5850050659,0.5850050659,1.,0.7925025329,1.,1.,0.7925025329,1.,-0.4544929039,-0.869487838,1.,1.,1.,0.5850050659,1.,1.,1.,0.5850050659,1.,1.,0.5850050659,0.1700101317,1.,1.,1.,0.5850050659,1.,0.7923104056,-2.7353431233,-2.7353431233,0.7923104056,0.5846163498,1.,-8.9620811811,0.7924085576,1.,1.,-9.3774648313,1.,1.,1.,-8.547474963,1.,1.,1.,-8.547474963,1.,1.,-0.0394979697,-8.547474963,1.,1.,1.,-8.547474963,1.,1.,1.,-8.547474963,1.,1.,1.,-9.3774648313,1.,-9.1696726235,1.,1.,1.,1.,-7.5079769933,-7.5079769933,1.,1.,-9.3774648313,1.,1.,-9.3774648313,-9.3774648313,-9.3774648313,1.,-9.3774648313,1.,-9.3774648313,1.,1.,-9.3774648313,1.,1.,-3.1518439515,-3.9799392097,-3.9799392097,1.,-5.2256208798,1.,1.,1.;1.,-9.3774648313,-9.3774648313,-9.3774648313,1.,-9.3774648313,1.,-9.3774648313,1.,1.,-9.3774648313,-9.3774648313,-9.3774648313,-9.3774648313,1.,-9.3774648313,0.7925025329,1.,1.,0.7925025329,1.,1.,-9.3774648313,-9.3774648313,1.,-8.9616656434,1.,-8.9616656434,1.,-9.3774648313,-9.3774648313,-9.3774648313,1.,1.,1.,-9.3774648313,1.,1.,1.,-9.3774648313,1.,1.,1.,-9.3774648313,1.,1.,1.,-9.3774648313,-2.1124620061,1.,1.,-2.1124620061,1.,1.,1.,-9.3774648313,1.,1.,1.,-8.9616656434,1.,1.,1.,-9.3774648313,0.7925025329,1.,1.,0.7925025329,0.7925025329,1.,1.,0.7925025329,0.7925025329,1.,1.,0.7925025329,0.7925025329,1.,1.,0.7925025329,-1.904964539,1.,1.,-1.904964539,0.7925025329,0.7921004061,1.,0.584602939,0.7925025329,1.,1.,0.584602939,0.7925025329,0.7921004061,1.,0.584602939,1.,1.,1.,1.,1.,1.,1.,1.,1.,1.,1.,1.,0.7925025329,1.,1.,0.7925025329,1.,1.,1.,-8.3379668615,0.7925025329,1.,1.,0.7925025329,1.,1.,1.,0.7921004061,1.,1.,1.,1.,1.,1.,1.,1.,1.,1.,1.,1.,0.7925025329,1.,0.5850050659,0.7925025329,1.,1.,0.5850050659,1.,1.,1.,0.5850050659,1.,1.,1.,0.5850050659,1.,0.7925025329,1.,0.5850050659,0.7925025329,1.,1.,1.,1.,1.,0.5850050659,0.5850050659,1.,0.7925025329,1.,1.,0.7925025329,1.,-0.4544929039,-0.869487838,1.,1.,1.,0.5850050659,1.,1.,1.,0.5850050659,1.,1.,0.5850050659,0.1700101317,1.,1.,1.,0.5850050659,1.,0.7923104056,-2.7353431233,-2.7353431233,0.7923104056,0.5846163498,1.,-8.9620811811,0.7924085576,1.,1.,-9.3774648313,1.,1.,1.,-8.547474963,1.,1.,1.,-8.547474963,1.,1.,-0.0394979697,-8.547474963,1.,1.,1.,-8.547474963,1.,1.,1.,-8.547474963,1.,1.,1.,-9.3774648313,1.,-9.1696726235,1.,1.,1.,1.,-7.5079769933,-7.5079769933,1.,1.,-9.3774648313,1.,1.,-9.3774648313,-9.3774648313,-9.3774648313,1.,-9.3774648313,1.,-9.3774648313,1.,1.,-9.3774648313,1.,1.,-3.1518439515,-3.9799392097,-3.9799392097,1.,-5.2256208798,1.,1.,1.;1.,-9.3774648313,-9.3774648313,-9.3774648313,1.,-9.3774648313,1.,-9.3774648313,1.,1.,-9.3774648313,-9.3774648313,-9.3774648313,-9.3774648313,1.,-9.3774648313,0.7925025329,1.,1.,0.7925025329,1.,1.,-9.3774648313,-9.3774648313,1.,-8.9616656434,1.,-8.9616656434,1.,-9.3774648313,-9.3774648313,-9.3774648313,1.,1.,1.,-9.3774648313,1.,1.,1.,-9.3774648313,1.,1.,1.,-9.3774648313,1.,1.,1.,-9.3774648313,-2.1124620061,1.,1.,-2.1124620061,1.,1.,1.,-9.3774648313,1.,1.,1.,-8.9616656434,1.,1.,1.,-9.3774648313,0.7925025329,1.,1.,0.7925025329,0.7925025329,1.,1.,0.7925025329,0.7925025329,1.,1.,0.7925025329,0.7925025329,1.,1.,0.7925025329,-1.904964539,1.,1.,-1.904964539,0.7925025329,0.7921004061,1.,0.584602939,0.7925025329,1.,1.,0.584602939,0.7925025329,0.7921004061,1.,0.584602939,1.,1.,1.,1.,1.,1.,1.,1.,1.,1.,1.,1.,0.7925025329,1.,1.,0.7925025329,1.,1.,1.,-8.3379668615,0.7925025329,1.,1.,0.7925025329,1.,1.,1.,0.7921004061,1.,1.,1.,1.,1.,1.,1.,1.,1.,1.,1.,1.,0.7925025329,1.,0.5850050659,0.7925025329,1.,1.,0.5850050659,1.,1.,1.,0.5850050659,1.,1.,1.,0.5850050659,1.,0.7925025329,1.,0.5850050659,0.7925025329,1.,1.,1.,1.,1.,0.5850050659,0.5850050659,1.,0.7925025329,1.,1.,0.7925025329,1.,-0.4544929039,-0.869487838,1.,1.,1.,0.5850050659,1.,1.,1.,0.5850050659,1.,1.,0.5850050659,0.1700101317,1.,1.,1.,0.5850050659,1.,0.7923104056,-2.7353431233,-2.7353431233,0.7923104056,0.5846163498,1.,-8.9620811811,0.7924085576,1.,1.,-9.3774648313,1.,1.,1.,-8.547474963,1.,1.,1.,-8.547474963,1.,1.,-0.0394979697,-8.547474963,1.,1.,1.,-8.547474963,1.,1.,1.,-8.547474963,1.,1.,1.,-9.3774648313,1.,-9.1696726235,1.,1.,1.,1.,-7.5079769933,-7.5079769933,1.,1.,-9.3774648313,1.,1.,-9.3774648313,-9.3774648313,-9.3774648313,1.,-9.3774648313,1.,-9.3774648313,1.,1.,-9.3774648313,1.,1.,-3.1518439515,-3.9799392097,-3.9799392097,1.,-5.2256208798,1.,1.,1.;1.,-9.3774648313,-9.3774648313,-9.3774648313,1.,-9.3774648313,1.,-9.3774648313,1.,1.,-9.3774648313,-9.3774648313,-9.3774648313,-9.3774648313,1.,-9.3774648313,0.7925025329,1.,1.,0.7925025329,1.,1.,-9.3774648313,-9.3774648313,1.,-8.9616656434,1.,-8.9616656434,1.,-9.3774648313,-9.3774648313,-9.3774648313,1.,1.,1.,-9.3774648313,1.,1.,1.,-9.3774648313,1.,1.,1.,-9.3774648313,1.,1.,1.,-9.3774648313,-2.1124620061,1.,1.,-2.1124620061,1.,1.,1.,-9.3774648313,1.,1.,1.,-8.9616656434,1.,1.,1.,-9.3774648313,0.7925025329,1.,1.,0.7925025329,0.7925025329,1.,1.,0.7925025329,0.7925025329,1.,1.,0.7925025329,0.7925025329,1.,1.,0.7925025329,-1.904964539,1.,1.,-1.904964539,0.7925025329,0.7921004061,1.,0.584602939,0.7925025329,1.,1.,0.584602939,0.7925025329,0.7921004061,1.,0.584602939,1.,1.,1.,1.,1.,1.,1.,1.,1.,1.,1.,1.,0.7925025329,1.,1.,0.7925025329,1.,1.,1.,-8.3379668615,0.7925025329,1.,1.,0.7925025329,1.,1.,1.,0.7921004061,1.,1.,1.,1.,1.,1.,1.,1.,1.,1.,1.,1.,0.7925025329,1.,0.5850050659,0.7925025329,1.,1.,0.5850050659,1.,1.,1.,0.5850050659,1.,1.,1.,0.5850050659,1.,0.7925025329,1.,0.5850050659,0.7925025329,1.,1.,1.,1.,1.,0.5850050659,0.5850050659,1.,0.7925025329,1.,1.,0.7925025329,1.,-0.4544929039,-0.869487838,1.,1.,1.,0.5850050659,1.,1.,1.,0.5850050659,1.,1.,0.5850050659,0.1700101317,1.,1.,1.,0.5850050659,1.,0.7923104056,-2.7353431233,-2.7353431233,0.7923104056,0.5846163498,1.,-8.9620811811,0.7924085576,1.,1.,-9.3774648313,1.,1.,1.,-8.547474963,1.,1.,1.,-8.547474963,1.,1.,-0.0394979697,-8.547474963,1.,1.,1.,-8.547474963,1.,1.,1.,-8.547474963,1.,1.,1.,-9.3774648313,1.,-9.1696726235,1.,1.,1.,1.,-7.5079769933,-7.5079769933,1.,1.,-9.3774648313,1.,1.,-9.3774648313,-9.3774648313,-9.3774648313,1.,-9.3774648313,1.,-9.3774648313,1.,1.,-9.3774648313,1.,1.,-3.1518439515,-3.9799392097,-3.9799392097,1.,-5.2256208798,1.,1.,1.;1.,-9.3774648313,-9.3774648313,-9.3774648313,1.,-9.3774648313,1.,-9.3774648313,1.,1.,-9.3774648313,-9.3774648313,-9.3774648313,-9.3774648313,1.,-9.3774648313,0.7925025329,1.,1.,0.7925025329,1.,1.,-9.3774648313,-9.3774648313,1.,-8.9616656434,1.,-8.9616656434,1.,-9.3774648313,-9.3774648313,-9.3774648313,1.,1.,1.,-9.3774648313,1.,1.,1.,-9.3774648313,1.,1.,1.,-9.3774648313,1.,1.,1.,-9.3774648313,-2.1124620061,1.,1.,-2.1124620061,1.,1.,1.,-9.3774648313,1.,1.,1.,-8.9616656434,1.,1.,1.,-9.3774648313,0.7925025329,1.,1.,0.7925025329,0.7925025329,1.,1.,0.7925025329,0.7925025329,1.,1.,0.7925025329,0.7925025329,1.,1.,0.7925025329,-1.904964539,1.,1.,-1.904964539,0.7925025329,0.7921004061,1.,0.584602939,0.7925025329,1.,1.,0.584602939,0.7925025329,0.7921004061,1.,0.584602939,1.,1.,1.,1.,1.,1.,1.,1.,1.,1.,1.,1.,0.7925025329,1.,1.,0.7925025329,1.,1.,1.,-8.3379668615,0.7925025329,1.,1.,0.7925025329,1.,1.,1.,0.7921004061,1.,1.,1.,1.,1.,1.,1.,1.,1.,1.,1.,1.,0.7925025329,1.,0.5850050659,0.7925025329,1.,1.,0.5850050659,1.,1.,1.,0.5850050659,1.,1.,1.,0.5850050659,1.,0.7925025329,1.,0.5850050659,0.7925025329,1.,1.,1.,1.,1.,0.5850050659,0.5850050659,1.,0.7925025329,1.,1.,0.7925025329,1.,-0.4544929039,-0.869487838,1.,1.,1.,0.5850050659,1.,1.,1.,0.5850050659,1.,1.,0.5850050659,0.1700101317,1.,1.,1.,0.5850050659,1.,0.7923104056,-2.7353431233,-2.7353431233,0.7923104056,0.5846163498,1.,-8.9620811811,0.7924085576,1.,1.,-9.3774648313,1.,1.,1.,-8.547474963,1.,1.,1.,-8.547474963,1.,1.,-0.0394979697,-8.547474963,1.,1.,1.,-8.547474963,1.,1.,1.,-8.547474963,1.,1.,1.,-9.3774648313,1.,-9.1696726235,1.,1.,1.,1.,-7.5079769933,-7.5079769933,1.,1.,-9.3774648313,1.,1.,-9.3774648313,-9.3774648313,-9.3774648313,1.,-9.3774648313,1.,-9.3774648313,1.,1.,-9.3774648313,1.,1.,-3.1518439515,-3.9799392097,-3.9799392097,1.,-5.2256208798,1.,1.,1.;1.,-9.3774648313,-9.3774648313,-9.3774648313,1.,-9.3774648313,1.,-9.3774648313,1.,1.,-9.3774648313,-9.3774648313,-9.3774648313,-9.3774648313,1.,-9.3774648313,0.7925025329,1.,1.,0.7925025329,1.,1.,-9.3774648313,-9.3774648313,1.,-8.9616656434,1.,-8.9616656434,1.,-9.3774648313,-9.3774648313,-9.3774648313,1.,1.,1.,-9.3774648313,1.,1.,1.,-9.3774648313,1.,1.,1.,-9.3774648313,1.,1.,1.,-9.3774648313,-2.1124620061,1.,1.,-2.1124620061,1.,1.,1.,-9.3774648313,1.,1.,1.,-8.9616656434,1.,1.,1.,-9.3774648313,0.7925025329,1.,1.,0.7925025329,0.7925025329,1.,1.,0.7925025329,0.7925025329,1.,1.,0.7925025329,0.7925025329,1.,1.,0.7925025329,-1.904964539,1.,1.,-1.904964539,0.7925025329,0.7921004061,1.,0.584602939,0.7925025329,1.,1.,0.584602939,0.7925025329,0.7921004061,1.,0.584602939,1.,1.,1.,1.,1.,1.,1.,1.,1.,1.,1.,1.,0.7925025329,1.,1.,0.7925025329,1.,1.,1.,-8.3379668615,0.7925025329,1.,1.,0.7925025329,1.,1.,1.,0.7921004061,1.,1.,1.,1.,1.,1.,1.,1.,1.,1.,1.,1.,0.7925025329,1.,0.5850050659,0.7925025329,1.,1.,0.5850050659,1.,1.,1.,0.5850050659,1.,1.,1.,0.5850050659,1.,0.7925025329,1.,0.5850050659,0.7925025329,1.,1.,1.,1.,1.,0.5850050659,0.5850050659,1.,0.7925025329,1.,1.,0.7925025329,1.,-0.4544929039,-0.869487838,1.,1.,1.,0.5850050659,1.,1.,1.,0.5850050659,1.,1.,0.5850050659,0.1700101317,1.,1.,1.,0.5850050659,1.,0.7923104056,-2.7353431233,-2.7353431233,0.7923104056,0.5846163498,1.,-8.9620811811,0.7924085576,1.,1.,-9.3774648313,1.,1.,1.,-8.547474963,1.,1.,1.,-8.547474963,1.,1.,-0.0394979697,-8.547474963,1.,1.,1.,-8.547474963,1.,1.,1.,-8.547474963,1.,1.,1.,-9.3774648313,1.,-9.1696726235,1.,1.,1.,1.,-7.5079769933,-7.5079769933,1.,1.,-9.3774648313,1.,1.,-9.3774648313,-9.3774648313,-9.3774648313,1.,-9.3774648313,1.,-9.3774648313,1.,1.,-9.3774648313,1.,1.,-3.1518439515,-3.9799392097,-3.9799392097,1.,-5.2256208798,1.,1.,1.;1.,-9.3774648313,-9.3774648313,-9.3774648313,1.,-9.3774648313,1.,-9.3774648313,1.,1.,-9.3774648313,-9.3774648313,-9.3774648313,-9.3774648313,1.,-9.3774648313,0.7925025329,1.,1.,0.7925025329,1.,1.,-9.3774648313,-9.3774648313,1.,-8.9616656434,1.,-8.9616656434,1.,-9.3774648313,-9.3774648313,-9.3774648313,1.,1.,1.,-9.3774648313,1.,1.,1.,-9.3774648313,1.,1.,1.,-9.3774648313,1.,1.,1.,-9.3774648313,-2.1124620061,1.,1.,-2.1124620061,1.,1.,1.,-9.3774648313,1.,1.,1.,-8.9616656434,1.,1.,1.,-9.3774648313,0.7925025329,1.,1.,0.7925025329,0.7925025329,1.,1.,0.7925025329,0.7925025329,1.,1.,0.7925025329,0.7925025329,1.,1.,0.7925025329,-1.904964539,1.,1.,-1.904964539,0.7925025329,0.7921004061,1.,0.584602939,0.7925025329,1.,1.,0.584602939,0.7925025329,0.7921004061,1.,0.584602939,1.,1.,1.,1.,1.,1.,1.,1.,1.,1.,1.,1.,0.7925025329,1.,1.,0.7925025329,1.,1.,1.,-8.3379668615,0.7925025329,1.,1.,0.7925025329,1.,1.,1.,0.7921004061,1.,1.,1.,1.,1.,1.,1.,1.,1.,1.,1.,1.,0.7925025329,1.,0.5850050659,0.7925025329,1.,1.,0.5850050659,1.,1.,1.,0.5850050659,1.,1.,1.,0.5850050659,1.,0.7925025329,1.,0.5850050659,0.7925025329,1.,1.,1.,1.,1.,0.5850050659,0.5850050659,1.,0.7925025329,1.,1.,0.7925025329,1.,-0.4544929039,-0.869487838,1.,1.,1.,0.5850050659,1.,1.,1.,0.5850050659,1.,1.,0.5850050659,0.1700101317,1.,1.,1.,0.5850050659,1.,0.7923104056,-2.7353431233,-2.7353431233,0.7923104056,0.5846163498,1.,-8.9620811811,0.7924085576,1.,1.,-9.3774648313,1.,1.,1.,-8.547474963,1.,1.,1.,-8.547474963,1.,1.,-0.0394979697,-8.547474963,1.,1.,1.,-8.547474963,1.,1.,1.,-8.547474963,1.,1.,1.,-9.3774648313,1.,-9.1696726235,1.,1.,1.,1.,-7.5079769933,-7.5079769933,1.,1.,-9.3774648313,1.,1.,-9.3774648313,-9.3774648313,-9.3774648313,1.,-9.3774648313,1.,-9.3774648313,1.,1.,-9.3774648313,1.,1.,-3.1518439515,-3.9799392097,-3.9799392097,1.,-5.2256208798,1.,1.,1.;1.,-9.3774648313,-9.3774648313,-9.3774648313,1.,-9.3774648313,1.,-9.3774648313,1.,1.,-9.3774648313,-9.3774648313,-9.3774648313,-9.3774648313,1.,-9.3774648313,0.7925025329,1.,1.,0.7925025329,1.,1.,-9.3774648313,-9.3774648313,1.,-8.9616656434,1.,-8.9616656434,1.,-9.3774648313,-9.3774648313,-9.3774648313,1.,1.,1.,-9.3774648313,1.,1.,1.,-9.3774648313,1.,1.,1.,-9.3774648313,1.,1.,1.,-9.3774648313,-2.1124620061,1.,1.,-2.1124620061,1.,1.,1.,-9.3774648313,1.,1.,1.,-8.9616656434,1.,1.,1.,-9.3774648313,0.7925025329,1.,1.,0.7925025329,0.7925025329,1.,1.,0.7925025329,0.7925025329,1.,1.,0.7925025329,0.7925025329,1.,1.,0.7925025329,-1.904964539,1.,1.,-1.904964539,0.7925025329,0.7921004061,1.,0.584602939,0.7925025329,1.,1.,0.584602939,0.7925025329,0.7921004061,1.,0.584602939,1.,1.,1.,1.,1.,1.,1.,1.,1.,1.,1.,1.,0.7925025329,1.,1.,0.7925025329,1.,1.,1.,-8.3379668615,0.7925025329,1.,1.,0.7925025329,1.,1.,1.,0.7921004061,1.,1.,1.,1.,1.,1.,1.,1.,1.,1.,1.,1.,0.7925025329,1.,0.5850050659,0.7925025329,1.,1.,0.5850050659,1.,1.,1.,0.5850050659,1.,1.,1.,0.5850050659,1.,0.7925025329,1.,0.5850050659,0.7925025329,1.,1.,1.,1.,1.,0.5850050659,0.5850050659,1.,0.7925025329,1.,1.,0.7925025329,1.,-0.4544929039,-0.869487838,1.,1.,1.,0.5850050659,1.,1.,1.,0.5850050659,1.,1.,0.5850050659,0.1700101317,1.,1.,1.,0.5850050659,1.,0.7923104056,-2.7353431233,-2.7353431233,0.7923104056,0.5846163498,1.,-8.9620811811,0.7924085576,1.,1.,-9.3774648313,1.,1.,1.,-8.547474963,1.,1.,1.,-8.547474963,1.,1.,-0.0394979697,-8.547474963,1.,1.,1.,-8.547474963,1.,1.,1.,-8.547474963,1.,1.,1.,